<?xml version="1.0"?>
<opencv_storage>
<cascade>
  <stageType>BOOST</stageType>
  <featureType>HAAR</featureType>
  <height>20</height>
  <width>20</width>
  <stageParams>
    <boostType>GAB</boostType>
    <minHitRate>9.9500000476837158e-01</minHitRate>
    <maxFalseAlarm>5.0000000000000000e-01</maxFalseAlarm>
    <weightTrimRate>9.4999999999999996e-01</weightTrimRate>
    <maxDepth>1</maxDepth>
    <maxWeakCount>100</maxWeakCount></stageParams>
  <featureParams>
    <maxCatCount>0</maxCatCount>
    <featSize>1</featSize>
    <mode>BASIC</mode></featureParams>
  <stageNum>13</stageNum>
  <stages>
    <!-- stage 0 -->
    <_>
      <maxWeakCount>100</maxWeakCount>
      <stageThreshold>-9.9705390930175781e+01</stageThreshold>
      <weakClassifiers>
        <_>
          <internalNodes>
            0 -1 0 1.0928279953077435e-03</internalNodes>
          <leafValues>
            -7.0538920164108276e-01 -5.7808220386505127e-01</leafValues></_>
        <_>
          <internalNodes>
            0 -1 1 -4.7660432755947113e-04</internalNodes>
          <leafValues>
            1. -1.</leafValues></_>
        <_>
          <internalNodes>
            0 -1 1 -4.7660432755947113e-04</internalNodes>
          <leafValues>
            1. -1.</leafValues></_>
        <_>
          <internalNodes>
            0 -1 1 -4.7660432755947113e-04</internalNodes>
          <leafValues>
            1. -1.</leafValues></_>
        <_>
          <internalNodes>
            0 -1 1 -4.7660432755947113e-04</internalNodes>
          <leafValues>
            1. -1.</leafValues></_>
        <_>
          <internalNodes>
            0 -1 1 -4.7660432755947113e-04</internalNodes>
          <leafValues>
            1. -1.</leafValues></_>
        <_>
          <internalNodes>
            0 -1 1 -4.7660432755947113e-04</internalNodes>
          <leafValues>
            1. -1.</leafValues></_>
        <_>
          <internalNodes>
            0 -1 1 -4.7660432755947113e-04</internalNodes>
          <leafValues>
            1. -1.</leafValues></_>
        <_>
          <internalNodes>
            0 -1 1 -4.7660432755947113e-04</internalNodes>
          <leafValues>
            1. -1.</leafValues></_>
        <_>
          <internalNodes>
            0 -1 1 -4.7660432755947113e-04</internalNodes>
          <leafValues>
            1. -1.</leafValues></_>
        <_>
          <internalNodes>
            0 -1 1 -4.7660432755947113e-04</internalNodes>
          <leafValues>
            1. -1.</leafValues></_>
        <_>
          <internalNodes>
            0 -1 1 -4.7660432755947113e-04</internalNodes>
          <leafValues>
            1. -1.</leafValues></_>
        <_>
          <internalNodes>
            0 -1 1 -4.7660432755947113e-04</internalNodes>
          <leafValues>
            1. -1.</leafValues></_>
        <_>
          <internalNodes>
            0 -1 1 -4.7660432755947113e-04</internalNodes>
          <leafValues>
            1. -1.</leafValues></_>
        <_>
          <internalNodes>
            0 -1 1 -4.7660432755947113e-04</internalNodes>
          <leafValues>
            1. -1.</leafValues></_>
        <_>
          <internalNodes>
            0 -1 1 -4.7660432755947113e-04</internalNodes>
          <leafValues>
            1. -1.</leafValues></_>
        <_>
          <internalNodes>
            0 -1 1 -4.7660432755947113e-04</internalNodes>
          <leafValues>
            1. -1.</leafValues></_>
        <_>
          <internalNodes>
            0 -1 1 -4.7660432755947113e-04</internalNodes>
          <leafValues>
            1. -1.</leafValues></_>
        <_>
          <internalNodes>
            0 -1 1 -4.7660432755947113e-04</internalNodes>
          <leafValues>
            1. -1.</leafValues></_>
        <_>
          <internalNodes>
            0 -1 1 -4.7660432755947113e-04</internalNodes>
          <leafValues>
            1. -1.</leafValues></_>
        <_>
          <internalNodes>
            0 -1 1 -4.7660432755947113e-04</internalNodes>
          <leafValues>
            1. -1.</leafValues></_>
        <_>
          <internalNodes>
            0 -1 1 -4.7660432755947113e-04</internalNodes>
          <leafValues>
            1. -1.</leafValues></_>
        <_>
          <internalNodes>
            0 -1 1 -4.7660432755947113e-04</internalNodes>
          <leafValues>
            1. -1.</leafValues></_>
        <_>
          <internalNodes>
            0 -1 1 -4.7660432755947113e-04</internalNodes>
          <leafValues>
            1. -1.</leafValues></_>
        <_>
          <internalNodes>
            0 -1 1 -4.7660432755947113e-04</internalNodes>
          <leafValues>
            1. -1.</leafValues></_>
        <_>
          <internalNodes>
            0 -1 1 -4.7660432755947113e-04</internalNodes>
          <leafValues>
            1. -1.</leafValues></_>
        <_>
          <internalNodes>
            0 -1 1 -4.7660432755947113e-04</internalNodes>
          <leafValues>
            1. -1.</leafValues></_>
        <_>
          <internalNodes>
            0 -1 1 -4.7660432755947113e-04</internalNodes>
          <leafValues>
            1. -1.</leafValues></_>
        <_>
          <internalNodes>
            0 -1 1 -4.7660432755947113e-04</internalNodes>
          <leafValues>
            1. -1.</leafValues></_>
        <_>
          <internalNodes>
            0 -1 1 -4.7660432755947113e-04</internalNodes>
          <leafValues>
            1. -1.</leafValues></_>
        <_>
          <internalNodes>
            0 -1 1 -4.7660432755947113e-04</internalNodes>
          <leafValues>
            1. -1.</leafValues></_>
        <_>
          <internalNodes>
            0 -1 1 -4.7660432755947113e-04</internalNodes>
          <leafValues>
            1. -1.</leafValues></_>
        <_>
          <internalNodes>
            0 -1 1 -4.7660432755947113e-04</internalNodes>
          <leafValues>
            1. -1.</leafValues></_>
        <_>
          <internalNodes>
            0 -1 1 -4.7660432755947113e-04</internalNodes>
          <leafValues>
            1. -1.</leafValues></_>
        <_>
          <internalNodes>
            0 -1 1 -4.7660432755947113e-04</internalNodes>
          <leafValues>
            1. -1.</leafValues></_>
        <_>
          <internalNodes>
            0 -1 1 -4.7660432755947113e-04</internalNodes>
          <leafValues>
            1. -1.</leafValues></_>
        <_>
          <internalNodes>
            0 -1 1 -4.7660432755947113e-04</internalNodes>
          <leafValues>
            1. -1.</leafValues></_>
        <_>
          <internalNodes>
            0 -1 1 -4.7660432755947113e-04</internalNodes>
          <leafValues>
            1. -1.</leafValues></_>
        <_>
          <internalNodes>
            0 -1 1 -4.7660432755947113e-04</internalNodes>
          <leafValues>
            1. -1.</leafValues></_>
        <_>
          <internalNodes>
            0 -1 1 -4.7660432755947113e-04</internalNodes>
          <leafValues>
            1. -1.</leafValues></_>
        <_>
          <internalNodes>
            0 -1 1 -4.7660432755947113e-04</internalNodes>
          <leafValues>
            1. -1.</leafValues></_>
        <_>
          <internalNodes>
            0 -1 1 -4.7660432755947113e-04</internalNodes>
          <leafValues>
            1. -1.</leafValues></_>
        <_>
          <internalNodes>
            0 -1 1 -4.7660432755947113e-04</internalNodes>
          <leafValues>
            1. -1.</leafValues></_>
        <_>
          <internalNodes>
            0 -1 1 -4.7660432755947113e-04</internalNodes>
          <leafValues>
            1. -1.</leafValues></_>
        <_>
          <internalNodes>
            0 -1 1 -4.7660432755947113e-04</internalNodes>
          <leafValues>
            1. -1.</leafValues></_>
        <_>
          <internalNodes>
            0 -1 1 -4.7660432755947113e-04</internalNodes>
          <leafValues>
            1. -1.</leafValues></_>
        <_>
          <internalNodes>
            0 -1 1 -4.7660432755947113e-04</internalNodes>
          <leafValues>
            1. -1.</leafValues></_>
        <_>
          <internalNodes>
            0 -1 1 -4.7660432755947113e-04</internalNodes>
          <leafValues>
            1. -1.</leafValues></_>
        <_>
          <internalNodes>
            0 -1 1 -4.7660432755947113e-04</internalNodes>
          <leafValues>
            1. -1.</leafValues></_>
        <_>
          <internalNodes>
            0 -1 1 -4.7660432755947113e-04</internalNodes>
          <leafValues>
            1. -1.</leafValues></_>
        <_>
          <internalNodes>
            0 -1 1 -4.7660432755947113e-04</internalNodes>
          <leafValues>
            1. -1.</leafValues></_>
        <_>
          <internalNodes>
            0 -1 1 -4.7660432755947113e-04</internalNodes>
          <leafValues>
            1. -1.</leafValues></_>
        <_>
          <internalNodes>
            0 -1 1 -4.7660432755947113e-04</internalNodes>
          <leafValues>
            1. -1.</leafValues></_>
        <_>
          <internalNodes>
            0 -1 1 -4.7660432755947113e-04</internalNodes>
          <leafValues>
            1. -1.</leafValues></_>
        <_>
          <internalNodes>
            0 -1 1 -4.7660432755947113e-04</internalNodes>
          <leafValues>
            1. -1.</leafValues></_>
        <_>
          <internalNodes>
            0 -1 1 -4.7660432755947113e-04</internalNodes>
          <leafValues>
            1. -1.</leafValues></_>
        <_>
          <internalNodes>
            0 -1 1 -4.7660432755947113e-04</internalNodes>
          <leafValues>
            1. -1.</leafValues></_>
        <_>
          <internalNodes>
            0 -1 1 -4.7660432755947113e-04</internalNodes>
          <leafValues>
            1. -1.</leafValues></_>
        <_>
          <internalNodes>
            0 -1 1 -4.7660432755947113e-04</internalNodes>
          <leafValues>
            1. -1.</leafValues></_>
        <_>
          <internalNodes>
            0 -1 1 -4.7660432755947113e-04</internalNodes>
          <leafValues>
            1. -1.</leafValues></_>
        <_>
          <internalNodes>
            0 -1 1 -4.7660432755947113e-04</internalNodes>
          <leafValues>
            1. -1.</leafValues></_>
        <_>
          <internalNodes>
            0 -1 1 -4.7660432755947113e-04</internalNodes>
          <leafValues>
            1. -1.</leafValues></_>
        <_>
          <internalNodes>
            0 -1 1 -4.7660432755947113e-04</internalNodes>
          <leafValues>
            1. -1.</leafValues></_>
        <_>
          <internalNodes>
            0 -1 1 -4.7660432755947113e-04</internalNodes>
          <leafValues>
            1. -1.</leafValues></_>
        <_>
          <internalNodes>
            0 -1 1 -4.7660432755947113e-04</internalNodes>
          <leafValues>
            1. -1.</leafValues></_>
        <_>
          <internalNodes>
            0 -1 1 -4.7660432755947113e-04</internalNodes>
          <leafValues>
            1. -1.</leafValues></_>
        <_>
          <internalNodes>
            0 -1 1 -4.7660432755947113e-04</internalNodes>
          <leafValues>
            1. -1.</leafValues></_>
        <_>
          <internalNodes>
            0 -1 1 -4.7660432755947113e-04</internalNodes>
          <leafValues>
            1. -1.</leafValues></_>
        <_>
          <internalNodes>
            0 -1 1 -4.7660432755947113e-04</internalNodes>
          <leafValues>
            1. -1.</leafValues></_>
        <_>
          <internalNodes>
            0 -1 1 -4.7660432755947113e-04</internalNodes>
          <leafValues>
            1. -1.</leafValues></_>
        <_>
          <internalNodes>
            0 -1 1 -4.7660432755947113e-04</internalNodes>
          <leafValues>
            1. -1.</leafValues></_>
        <_>
          <internalNodes>
            0 -1 1 -4.7660432755947113e-04</internalNodes>
          <leafValues>
            1. -1.</leafValues></_>
        <_>
          <internalNodes>
            0 -1 1 -4.7660432755947113e-04</internalNodes>
          <leafValues>
            1. -1.</leafValues></_>
        <_>
          <internalNodes>
            0 -1 1 -4.7660432755947113e-04</internalNodes>
          <leafValues>
            1. -1.</leafValues></_>
        <_>
          <internalNodes>
            0 -1 1 -4.7660432755947113e-04</internalNodes>
          <leafValues>
            1. -1.</leafValues></_>
        <_>
          <internalNodes>
            0 -1 1 -4.7660432755947113e-04</internalNodes>
          <leafValues>
            1. -1.</leafValues></_>
        <_>
          <internalNodes>
            0 -1 1 -4.7660432755947113e-04</internalNodes>
          <leafValues>
            1. -1.</leafValues></_>
        <_>
          <internalNodes>
            0 -1 1 -4.7660432755947113e-04</internalNodes>
          <leafValues>
            1. -1.</leafValues></_>
        <_>
          <internalNodes>
            0 -1 1 -4.7660432755947113e-04</internalNodes>
          <leafValues>
            1. -1.</leafValues></_>
        <_>
          <internalNodes>
            0 -1 1 -4.7660432755947113e-04</internalNodes>
          <leafValues>
            1. -1.</leafValues></_>
        <_>
          <internalNodes>
            0 -1 1 -4.7660432755947113e-04</internalNodes>
          <leafValues>
            1. -1.</leafValues></_>
        <_>
          <internalNodes>
            0 -1 1 -4.7660432755947113e-04</internalNodes>
          <leafValues>
            1. -1.</leafValues></_>
        <_>
          <internalNodes>
            0 -1 1 -4.7660432755947113e-04</internalNodes>
          <leafValues>
            1. -1.</leafValues></_>
        <_>
          <internalNodes>
            0 -1 1 -4.7660432755947113e-04</internalNodes>
          <leafValues>
            1. -1.</leafValues></_>
        <_>
          <internalNodes>
            0 -1 1 -4.7660432755947113e-04</internalNodes>
          <leafValues>
            1. -1.</leafValues></_>
        <_>
          <internalNodes>
            0 -1 1 -4.7660432755947113e-04</internalNodes>
          <leafValues>
            1. -1.</leafValues></_>
        <_>
          <internalNodes>
            0 -1 1 -4.7660432755947113e-04</internalNodes>
          <leafValues>
            1. -1.</leafValues></_>
        <_>
          <internalNodes>
            0 -1 1 -4.7660432755947113e-04</internalNodes>
          <leafValues>
            1. -1.</leafValues></_>
        <_>
          <internalNodes>
            0 -1 1 -4.7660432755947113e-04</internalNodes>
          <leafValues>
            1. -1.</leafValues></_>
        <_>
          <internalNodes>
            0 -1 1 -4.7660432755947113e-04</internalNodes>
          <leafValues>
            1. -1.</leafValues></_>
        <_>
          <internalNodes>
            0 -1 1 -4.7660432755947113e-04</internalNodes>
          <leafValues>
            1. -1.</leafValues></_>
        <_>
          <internalNodes>
            0 -1 1 -4.7660432755947113e-04</internalNodes>
          <leafValues>
            1. -1.</leafValues></_>
        <_>
          <internalNodes>
            0 -1 1 -4.7660432755947113e-04</internalNodes>
          <leafValues>
            1. -1.</leafValues></_>
        <_>
          <internalNodes>
            0 -1 1 -4.7660432755947113e-04</internalNodes>
          <leafValues>
            1. -1.</leafValues></_>
        <_>
          <internalNodes>
            0 -1 1 -4.7660432755947113e-04</internalNodes>
          <leafValues>
            1. -1.</leafValues></_>
        <_>
          <internalNodes>
            0 -1 1 -4.7660432755947113e-04</internalNodes>
          <leafValues>
            1. -1.</leafValues></_>
        <_>
          <internalNodes>
            0 -1 1 -4.7660432755947113e-04</internalNodes>
          <leafValues>
            1. -1.</leafValues></_>
        <_>
          <internalNodes>
            0 -1 1 -4.7660432755947113e-04</internalNodes>
          <leafValues>
            1. -1.</leafValues></_>
        <_>
          <internalNodes>
            0 -1 1 -4.7660432755947113e-04</internalNodes>
          <leafValues>
            1. -1.</leafValues></_>
        <_>
          <internalNodes>
            0 -1 1 -4.7660432755947113e-04</internalNodes>
          <leafValues>
            1. -1.</leafValues></_></weakClassifiers></_>
    <!-- stage 1 -->
    <_>
      <maxWeakCount>100</maxWeakCount>
      <stageThreshold>-9.9711051940917969e+01</stageThreshold>
      <weakClassifiers>
        <_>
          <internalNodes>
            0 -1 0 1.0928279953077435e-03</internalNodes>
          <leafValues>
            -7.1105527877807617e-01 -5.7920789718627930e-01</leafValues></_>
        <_>
          <internalNodes>
            0 -1 1 1.7491646576672792e-04</internalNodes>
          <leafValues>
            1. -1.</leafValues></_>
        <_>
          <internalNodes>
            0 -1 1 1.7491646576672792e-04</internalNodes>
          <leafValues>
            1. -1.</leafValues></_>
        <_>
          <internalNodes>
            0 -1 1 1.7491646576672792e-04</internalNodes>
          <leafValues>
            1. -1.</leafValues></_>
        <_>
          <internalNodes>
            0 -1 1 1.7491646576672792e-04</internalNodes>
          <leafValues>
            1. -1.</leafValues></_>
        <_>
          <internalNodes>
            0 -1 1 1.7491646576672792e-04</internalNodes>
          <leafValues>
            1. -1.</leafValues></_>
        <_>
          <internalNodes>
            0 -1 1 1.7491646576672792e-04</internalNodes>
          <leafValues>
            1. -1.</leafValues></_>
        <_>
          <internalNodes>
            0 -1 1 1.7491646576672792e-04</internalNodes>
          <leafValues>
            1. -1.</leafValues></_>
        <_>
          <internalNodes>
            0 -1 1 1.7491646576672792e-04</internalNodes>
          <leafValues>
            1. -1.</leafValues></_>
        <_>
          <internalNodes>
            0 -1 1 1.7491646576672792e-04</internalNodes>
          <leafValues>
            1. -1.</leafValues></_>
        <_>
          <internalNodes>
            0 -1 1 1.7491646576672792e-04</internalNodes>
          <leafValues>
            1. -1.</leafValues></_>
        <_>
          <internalNodes>
            0 -1 1 1.7491646576672792e-04</internalNodes>
          <leafValues>
            1. -1.</leafValues></_>
        <_>
          <internalNodes>
            0 -1 1 1.7491646576672792e-04</internalNodes>
          <leafValues>
            1. -1.</leafValues></_>
        <_>
          <internalNodes>
            0 -1 1 1.7491646576672792e-04</internalNodes>
          <leafValues>
            1. -1.</leafValues></_>
        <_>
          <internalNodes>
            0 -1 1 1.7491646576672792e-04</internalNodes>
          <leafValues>
            1. -1.</leafValues></_>
        <_>
          <internalNodes>
            0 -1 1 1.7491646576672792e-04</internalNodes>
          <leafValues>
            1. -1.</leafValues></_>
        <_>
          <internalNodes>
            0 -1 1 1.7491646576672792e-04</internalNodes>
          <leafValues>
            1. -1.</leafValues></_>
        <_>
          <internalNodes>
            0 -1 1 1.7491646576672792e-04</internalNodes>
          <leafValues>
            1. -1.</leafValues></_>
        <_>
          <internalNodes>
            0 -1 1 1.7491646576672792e-04</internalNodes>
          <leafValues>
            1. -1.</leafValues></_>
        <_>
          <internalNodes>
            0 -1 1 1.7491646576672792e-04</internalNodes>
          <leafValues>
            1. -1.</leafValues></_>
        <_>
          <internalNodes>
            0 -1 1 1.7491646576672792e-04</internalNodes>
          <leafValues>
            1. -1.</leafValues></_>
        <_>
          <internalNodes>
            0 -1 1 1.7491646576672792e-04</internalNodes>
          <leafValues>
            1. -1.</leafValues></_>
        <_>
          <internalNodes>
            0 -1 1 1.7491646576672792e-04</internalNodes>
          <leafValues>
            1. -1.</leafValues></_>
        <_>
          <internalNodes>
            0 -1 1 1.7491646576672792e-04</internalNodes>
          <leafValues>
            1. -1.</leafValues></_>
        <_>
          <internalNodes>
            0 -1 1 1.7491646576672792e-04</internalNodes>
          <leafValues>
            1. -1.</leafValues></_>
        <_>
          <internalNodes>
            0 -1 1 1.7491646576672792e-04</internalNodes>
          <leafValues>
            1. -1.</leafValues></_>
        <_>
          <internalNodes>
            0 -1 1 1.7491646576672792e-04</internalNodes>
          <leafValues>
            1. -1.</leafValues></_>
        <_>
          <internalNodes>
            0 -1 1 1.7491646576672792e-04</internalNodes>
          <leafValues>
            1. -1.</leafValues></_>
        <_>
          <internalNodes>
            0 -1 1 1.7491646576672792e-04</internalNodes>
          <leafValues>
            1. -1.</leafValues></_>
        <_>
          <internalNodes>
            0 -1 1 1.7491646576672792e-04</internalNodes>
          <leafValues>
            1. -1.</leafValues></_>
        <_>
          <internalNodes>
            0 -1 1 1.7491646576672792e-04</internalNodes>
          <leafValues>
            1. -1.</leafValues></_>
        <_>
          <internalNodes>
            0 -1 1 1.7491646576672792e-04</internalNodes>
          <leafValues>
            1. -1.</leafValues></_>
        <_>
          <internalNodes>
            0 -1 1 1.7491646576672792e-04</internalNodes>
          <leafValues>
            1. -1.</leafValues></_>
        <_>
          <internalNodes>
            0 -1 1 1.7491646576672792e-04</internalNodes>
          <leafValues>
            1. -1.</leafValues></_>
        <_>
          <internalNodes>
            0 -1 1 1.7491646576672792e-04</internalNodes>
          <leafValues>
            1. -1.</leafValues></_>
        <_>
          <internalNodes>
            0 -1 1 1.7491646576672792e-04</internalNodes>
          <leafValues>
            1. -1.</leafValues></_>
        <_>
          <internalNodes>
            0 -1 1 1.7491646576672792e-04</internalNodes>
          <leafValues>
            1. -1.</leafValues></_>
        <_>
          <internalNodes>
            0 -1 1 1.7491646576672792e-04</internalNodes>
          <leafValues>
            1. -1.</leafValues></_>
        <_>
          <internalNodes>
            0 -1 1 1.7491646576672792e-04</internalNodes>
          <leafValues>
            1. -1.</leafValues></_>
        <_>
          <internalNodes>
            0 -1 1 1.7491646576672792e-04</internalNodes>
          <leafValues>
            1. -1.</leafValues></_>
        <_>
          <internalNodes>
            0 -1 1 1.7491646576672792e-04</internalNodes>
          <leafValues>
            1. -1.</leafValues></_>
        <_>
          <internalNodes>
            0 -1 1 1.7491646576672792e-04</internalNodes>
          <leafValues>
            1. -1.</leafValues></_>
        <_>
          <internalNodes>
            0 -1 1 1.7491646576672792e-04</internalNodes>
          <leafValues>
            1. -1.</leafValues></_>
        <_>
          <internalNodes>
            0 -1 1 1.7491646576672792e-04</internalNodes>
          <leafValues>
            1. -1.</leafValues></_>
        <_>
          <internalNodes>
            0 -1 1 1.7491646576672792e-04</internalNodes>
          <leafValues>
            1. -1.</leafValues></_>
        <_>
          <internalNodes>
            0 -1 1 1.7491646576672792e-04</internalNodes>
          <leafValues>
            1. -1.</leafValues></_>
        <_>
          <internalNodes>
            0 -1 1 1.7491646576672792e-04</internalNodes>
          <leafValues>
            1. -1.</leafValues></_>
        <_>
          <internalNodes>
            0 -1 1 1.7491646576672792e-04</internalNodes>
          <leafValues>
            1. -1.</leafValues></_>
        <_>
          <internalNodes>
            0 -1 1 1.7491646576672792e-04</internalNodes>
          <leafValues>
            1. -1.</leafValues></_>
        <_>
          <internalNodes>
            0 -1 1 1.7491646576672792e-04</internalNodes>
          <leafValues>
            1. -1.</leafValues></_>
        <_>
          <internalNodes>
            0 -1 1 1.7491646576672792e-04</internalNodes>
          <leafValues>
            1. -1.</leafValues></_>
        <_>
          <internalNodes>
            0 -1 1 1.7491646576672792e-04</internalNodes>
          <leafValues>
            1. -1.</leafValues></_>
        <_>
          <internalNodes>
            0 -1 1 1.7491646576672792e-04</internalNodes>
          <leafValues>
            1. -1.</leafValues></_>
        <_>
          <internalNodes>
            0 -1 1 1.7491646576672792e-04</internalNodes>
          <leafValues>
            1. -1.</leafValues></_>
        <_>
          <internalNodes>
            0 -1 1 1.7491646576672792e-04</internalNodes>
          <leafValues>
            1. -1.</leafValues></_>
        <_>
          <internalNodes>
            0 -1 1 1.7491646576672792e-04</internalNodes>
          <leafValues>
            1. -1.</leafValues></_>
        <_>
          <internalNodes>
            0 -1 1 1.7491646576672792e-04</internalNodes>
          <leafValues>
            1. -1.</leafValues></_>
        <_>
          <internalNodes>
            0 -1 1 1.7491646576672792e-04</internalNodes>
          <leafValues>
            1. -1.</leafValues></_>
        <_>
          <internalNodes>
            0 -1 1 1.7491646576672792e-04</internalNodes>
          <leafValues>
            1. -1.</leafValues></_>
        <_>
          <internalNodes>
            0 -1 1 1.7491646576672792e-04</internalNodes>
          <leafValues>
            1. -1.</leafValues></_>
        <_>
          <internalNodes>
            0 -1 1 1.7491646576672792e-04</internalNodes>
          <leafValues>
            1. -1.</leafValues></_>
        <_>
          <internalNodes>
            0 -1 1 1.7491646576672792e-04</internalNodes>
          <leafValues>
            1. -1.</leafValues></_>
        <_>
          <internalNodes>
            0 -1 1 1.7491646576672792e-04</internalNodes>
          <leafValues>
            1. -1.</leafValues></_>
        <_>
          <internalNodes>
            0 -1 1 1.7491646576672792e-04</internalNodes>
          <leafValues>
            1. -1.</leafValues></_>
        <_>
          <internalNodes>
            0 -1 1 1.7491646576672792e-04</internalNodes>
          <leafValues>
            1. -1.</leafValues></_>
        <_>
          <internalNodes>
            0 -1 1 1.7491646576672792e-04</internalNodes>
          <leafValues>
            1. -1.</leafValues></_>
        <_>
          <internalNodes>
            0 -1 1 1.7491646576672792e-04</internalNodes>
          <leafValues>
            1. -1.</leafValues></_>
        <_>
          <internalNodes>
            0 -1 1 1.7491646576672792e-04</internalNodes>
          <leafValues>
            1. -1.</leafValues></_>
        <_>
          <internalNodes>
            0 -1 1 1.7491646576672792e-04</internalNodes>
          <leafValues>
            1. -1.</leafValues></_>
        <_>
          <internalNodes>
            0 -1 1 1.7491646576672792e-04</internalNodes>
          <leafValues>
            1. -1.</leafValues></_>
        <_>
          <internalNodes>
            0 -1 1 1.7491646576672792e-04</internalNodes>
          <leafValues>
            1. -1.</leafValues></_>
        <_>
          <internalNodes>
            0 -1 1 1.7491646576672792e-04</internalNodes>
          <leafValues>
            1. -1.</leafValues></_>
        <_>
          <internalNodes>
            0 -1 1 1.7491646576672792e-04</internalNodes>
          <leafValues>
            1. -1.</leafValues></_>
        <_>
          <internalNodes>
            0 -1 1 1.7491646576672792e-04</internalNodes>
          <leafValues>
            1. -1.</leafValues></_>
        <_>
          <internalNodes>
            0 -1 1 1.7491646576672792e-04</internalNodes>
          <leafValues>
            1. -1.</leafValues></_>
        <_>
          <internalNodes>
            0 -1 1 1.7491646576672792e-04</internalNodes>
          <leafValues>
            1. -1.</leafValues></_>
        <_>
          <internalNodes>
            0 -1 1 1.7491646576672792e-04</internalNodes>
          <leafValues>
            1. -1.</leafValues></_>
        <_>
          <internalNodes>
            0 -1 1 1.7491646576672792e-04</internalNodes>
          <leafValues>
            1. -1.</leafValues></_>
        <_>
          <internalNodes>
            0 -1 1 1.7491646576672792e-04</internalNodes>
          <leafValues>
            1. -1.</leafValues></_>
        <_>
          <internalNodes>
            0 -1 1 1.7491646576672792e-04</internalNodes>
          <leafValues>
            1. -1.</leafValues></_>
        <_>
          <internalNodes>
            0 -1 1 1.7491646576672792e-04</internalNodes>
          <leafValues>
            1. -1.</leafValues></_>
        <_>
          <internalNodes>
            0 -1 1 1.7491646576672792e-04</internalNodes>
          <leafValues>
            1. -1.</leafValues></_>
        <_>
          <internalNodes>
            0 -1 1 1.7491646576672792e-04</internalNodes>
          <leafValues>
            1. -1.</leafValues></_>
        <_>
          <internalNodes>
            0 -1 1 1.7491646576672792e-04</internalNodes>
          <leafValues>
            1. -1.</leafValues></_>
        <_>
          <internalNodes>
            0 -1 1 1.7491646576672792e-04</internalNodes>
          <leafValues>
            1. -1.</leafValues></_>
        <_>
          <internalNodes>
            0 -1 1 1.7491646576672792e-04</internalNodes>
          <leafValues>
            1. -1.</leafValues></_>
        <_>
          <internalNodes>
            0 -1 1 1.7491646576672792e-04</internalNodes>
          <leafValues>
            1. -1.</leafValues></_>
        <_>
          <internalNodes>
            0 -1 1 1.7491646576672792e-04</internalNodes>
          <leafValues>
            1. -1.</leafValues></_>
        <_>
          <internalNodes>
            0 -1 1 1.7491646576672792e-04</internalNodes>
          <leafValues>
            1. -1.</leafValues></_>
        <_>
          <internalNodes>
            0 -1 1 1.7491646576672792e-04</internalNodes>
          <leafValues>
            1. -1.</leafValues></_>
        <_>
          <internalNodes>
            0 -1 1 1.7491646576672792e-04</internalNodes>
          <leafValues>
            1. -1.</leafValues></_>
        <_>
          <internalNodes>
            0 -1 1 1.7491646576672792e-04</internalNodes>
          <leafValues>
            1. -1.</leafValues></_>
        <_>
          <internalNodes>
            0 -1 1 1.7491646576672792e-04</internalNodes>
          <leafValues>
            1. -1.</leafValues></_>
        <_>
          <internalNodes>
            0 -1 1 1.7491646576672792e-04</internalNodes>
          <leafValues>
            1. -1.</leafValues></_>
        <_>
          <internalNodes>
            0 -1 1 1.7491646576672792e-04</internalNodes>
          <leafValues>
            1. -1.</leafValues></_>
        <_>
          <internalNodes>
            0 -1 1 1.7491646576672792e-04</internalNodes>
          <leafValues>
            1. -1.</leafValues></_>
        <_>
          <internalNodes>
            0 -1 1 1.7491646576672792e-04</internalNodes>
          <leafValues>
            1. -1.</leafValues></_>
        <_>
          <internalNodes>
            0 -1 1 1.7491646576672792e-04</internalNodes>
          <leafValues>
            1. -1.</leafValues></_>
        <_>
          <internalNodes>
            0 -1 1 1.7491646576672792e-04</internalNodes>
          <leafValues>
            1. -1.</leafValues></_>
        <_>
          <internalNodes>
            0 -1 1 1.7491646576672792e-04</internalNodes>
          <leafValues>
            1. -1.</leafValues></_></weakClassifiers></_>
    <!-- stage 2 -->
    <_>
      <maxWeakCount>100</maxWeakCount>
      <stageThreshold>-9.9677108764648438e+01</stageThreshold>
      <weakClassifiers>
        <_>
          <internalNodes>
            0 -1 0 1.0928279953077435e-03</internalNodes>
          <leafValues>
            -6.7710840702056885e-01 -6.4324325323104858e-01</leafValues></_>
        <_>
          <internalNodes>
            0 -1 1 -1.8919192370958626e-04</internalNodes>
          <leafValues>
            1. -1.</leafValues></_>
        <_>
          <internalNodes>
            0 -1 1 -1.8919192370958626e-04</internalNodes>
          <leafValues>
            1. -1.</leafValues></_>
        <_>
          <internalNodes>
            0 -1 1 -1.8919192370958626e-04</internalNodes>
          <leafValues>
            1. -1.</leafValues></_>
        <_>
          <internalNodes>
            0 -1 1 -1.8919192370958626e-04</internalNodes>
          <leafValues>
            1. -1.</leafValues></_>
        <_>
          <internalNodes>
            0 -1 1 -1.8919192370958626e-04</internalNodes>
          <leafValues>
            1. -1.</leafValues></_>
        <_>
          <internalNodes>
            0 -1 1 -1.8919192370958626e-04</internalNodes>
          <leafValues>
            1. -1.</leafValues></_>
        <_>
          <internalNodes>
            0 -1 1 -1.8919192370958626e-04</internalNodes>
          <leafValues>
            1. -1.</leafValues></_>
        <_>
          <internalNodes>
            0 -1 1 -1.8919192370958626e-04</internalNodes>
          <leafValues>
            1. -1.</leafValues></_>
        <_>
          <internalNodes>
            0 -1 1 -1.8919192370958626e-04</internalNodes>
          <leafValues>
            1. -1.</leafValues></_>
        <_>
          <internalNodes>
            0 -1 1 -1.8919192370958626e-04</internalNodes>
          <leafValues>
            1. -1.</leafValues></_>
        <_>
          <internalNodes>
            0 -1 1 -1.8919192370958626e-04</internalNodes>
          <leafValues>
            1. -1.</leafValues></_>
        <_>
          <internalNodes>
            0 -1 1 -1.8919192370958626e-04</internalNodes>
          <leafValues>
            1. -1.</leafValues></_>
        <_>
          <internalNodes>
            0 -1 1 -1.8919192370958626e-04</internalNodes>
          <leafValues>
            1. -1.</leafValues></_>
        <_>
          <internalNodes>
            0 -1 1 -1.8919192370958626e-04</internalNodes>
          <leafValues>
            1. -1.</leafValues></_>
        <_>
          <internalNodes>
            0 -1 1 -1.8919192370958626e-04</internalNodes>
          <leafValues>
            1. -1.</leafValues></_>
        <_>
          <internalNodes>
            0 -1 1 -1.8919192370958626e-04</internalNodes>
          <leafValues>
            1. -1.</leafValues></_>
        <_>
          <internalNodes>
            0 -1 1 -1.8919192370958626e-04</internalNodes>
          <leafValues>
            1. -1.</leafValues></_>
        <_>
          <internalNodes>
            0 -1 1 -1.8919192370958626e-04</internalNodes>
          <leafValues>
            1. -1.</leafValues></_>
        <_>
          <internalNodes>
            0 -1 1 -1.8919192370958626e-04</internalNodes>
          <leafValues>
            1. -1.</leafValues></_>
        <_>
          <internalNodes>
            0 -1 1 -1.8919192370958626e-04</internalNodes>
          <leafValues>
            1. -1.</leafValues></_>
        <_>
          <internalNodes>
            0 -1 1 -1.8919192370958626e-04</internalNodes>
          <leafValues>
            1. -1.</leafValues></_>
        <_>
          <internalNodes>
            0 -1 1 -1.8919192370958626e-04</internalNodes>
          <leafValues>
            1. -1.</leafValues></_>
        <_>
          <internalNodes>
            0 -1 1 -1.8919192370958626e-04</internalNodes>
          <leafValues>
            1. -1.</leafValues></_>
        <_>
          <internalNodes>
            0 -1 1 -1.8919192370958626e-04</internalNodes>
          <leafValues>
            1. -1.</leafValues></_>
        <_>
          <internalNodes>
            0 -1 1 -1.8919192370958626e-04</internalNodes>
          <leafValues>
            1. -1.</leafValues></_>
        <_>
          <internalNodes>
            0 -1 1 -1.8919192370958626e-04</internalNodes>
          <leafValues>
            1. -1.</leafValues></_>
        <_>
          <internalNodes>
            0 -1 1 -1.8919192370958626e-04</internalNodes>
          <leafValues>
            1. -1.</leafValues></_>
        <_>
          <internalNodes>
            0 -1 1 -1.8919192370958626e-04</internalNodes>
          <leafValues>
            1. -1.</leafValues></_>
        <_>
          <internalNodes>
            0 -1 1 -1.8919192370958626e-04</internalNodes>
          <leafValues>
            1. -1.</leafValues></_>
        <_>
          <internalNodes>
            0 -1 1 -1.8919192370958626e-04</internalNodes>
          <leafValues>
            1. -1.</leafValues></_>
        <_>
          <internalNodes>
            0 -1 1 -1.8919192370958626e-04</internalNodes>
          <leafValues>
            1. -1.</leafValues></_>
        <_>
          <internalNodes>
            0 -1 1 -1.8919192370958626e-04</internalNodes>
          <leafValues>
            1. -1.</leafValues></_>
        <_>
          <internalNodes>
            0 -1 1 -1.8919192370958626e-04</internalNodes>
          <leafValues>
            1. -1.</leafValues></_>
        <_>
          <internalNodes>
            0 -1 1 -1.8919192370958626e-04</internalNodes>
          <leafValues>
            1. -1.</leafValues></_>
        <_>
          <internalNodes>
            0 -1 1 -1.8919192370958626e-04</internalNodes>
          <leafValues>
            1. -1.</leafValues></_>
        <_>
          <internalNodes>
            0 -1 1 -1.8919192370958626e-04</internalNodes>
          <leafValues>
            1. -1.</leafValues></_>
        <_>
          <internalNodes>
            0 -1 1 -1.8919192370958626e-04</internalNodes>
          <leafValues>
            1. -1.</leafValues></_>
        <_>
          <internalNodes>
            0 -1 1 -1.8919192370958626e-04</internalNodes>
          <leafValues>
            1. -1.</leafValues></_>
        <_>
          <internalNodes>
            0 -1 1 -1.8919192370958626e-04</internalNodes>
          <leafValues>
            1. -1.</leafValues></_>
        <_>
          <internalNodes>
            0 -1 1 -1.8919192370958626e-04</internalNodes>
          <leafValues>
            1. -1.</leafValues></_>
        <_>
          <internalNodes>
            0 -1 1 -1.8919192370958626e-04</internalNodes>
          <leafValues>
            1. -1.</leafValues></_>
        <_>
          <internalNodes>
            0 -1 1 -1.8919192370958626e-04</internalNodes>
          <leafValues>
            1. -1.</leafValues></_>
        <_>
          <internalNodes>
            0 -1 1 -1.8919192370958626e-04</internalNodes>
          <leafValues>
            1. -1.</leafValues></_>
        <_>
          <internalNodes>
            0 -1 1 -1.8919192370958626e-04</internalNodes>
          <leafValues>
            1. -1.</leafValues></_>
        <_>
          <internalNodes>
            0 -1 1 -1.8919192370958626e-04</internalNodes>
          <leafValues>
            1. -1.</leafValues></_>
        <_>
          <internalNodes>
            0 -1 1 -1.8919192370958626e-04</internalNodes>
          <leafValues>
            1. -1.</leafValues></_>
        <_>
          <internalNodes>
            0 -1 1 -1.8919192370958626e-04</internalNodes>
          <leafValues>
            1. -1.</leafValues></_>
        <_>
          <internalNodes>
            0 -1 1 -1.8919192370958626e-04</internalNodes>
          <leafValues>
            1. -1.</leafValues></_>
        <_>
          <internalNodes>
            0 -1 1 -1.8919192370958626e-04</internalNodes>
          <leafValues>
            1. -1.</leafValues></_>
        <_>
          <internalNodes>
            0 -1 1 -1.8919192370958626e-04</internalNodes>
          <leafValues>
            1. -1.</leafValues></_>
        <_>
          <internalNodes>
            0 -1 1 -1.8919192370958626e-04</internalNodes>
          <leafValues>
            1. -1.</leafValues></_>
        <_>
          <internalNodes>
            0 -1 1 -1.8919192370958626e-04</internalNodes>
          <leafValues>
            1. -1.</leafValues></_>
        <_>
          <internalNodes>
            0 -1 1 -1.8919192370958626e-04</internalNodes>
          <leafValues>
            1. -1.</leafValues></_>
        <_>
          <internalNodes>
            0 -1 1 -1.8919192370958626e-04</internalNodes>
          <leafValues>
            1. -1.</leafValues></_>
        <_>
          <internalNodes>
            0 -1 1 -1.8919192370958626e-04</internalNodes>
          <leafValues>
            1. -1.</leafValues></_>
        <_>
          <internalNodes>
            0 -1 1 -1.8919192370958626e-04</internalNodes>
          <leafValues>
            1. -1.</leafValues></_>
        <_>
          <internalNodes>
            0 -1 1 -1.8919192370958626e-04</internalNodes>
          <leafValues>
            1. -1.</leafValues></_>
        <_>
          <internalNodes>
            0 -1 1 -1.8919192370958626e-04</internalNodes>
          <leafValues>
            1. -1.</leafValues></_>
        <_>
          <internalNodes>
            0 -1 1 -1.8919192370958626e-04</internalNodes>
          <leafValues>
            1. -1.</leafValues></_>
        <_>
          <internalNodes>
            0 -1 1 -1.8919192370958626e-04</internalNodes>
          <leafValues>
            1. -1.</leafValues></_>
        <_>
          <internalNodes>
            0 -1 1 -1.8919192370958626e-04</internalNodes>
          <leafValues>
            1. -1.</leafValues></_>
        <_>
          <internalNodes>
            0 -1 1 -1.8919192370958626e-04</internalNodes>
          <leafValues>
            1. -1.</leafValues></_>
        <_>
          <internalNodes>
            0 -1 1 -1.8919192370958626e-04</internalNodes>
          <leafValues>
            1. -1.</leafValues></_>
        <_>
          <internalNodes>
            0 -1 1 -1.8919192370958626e-04</internalNodes>
          <leafValues>
            1. -1.</leafValues></_>
        <_>
          <internalNodes>
            0 -1 1 -1.8919192370958626e-04</internalNodes>
          <leafValues>
            1. -1.</leafValues></_>
        <_>
          <internalNodes>
            0 -1 1 -1.8919192370958626e-04</internalNodes>
          <leafValues>
            1. -1.</leafValues></_>
        <_>
          <internalNodes>
            0 -1 1 -1.8919192370958626e-04</internalNodes>
          <leafValues>
            1. -1.</leafValues></_>
        <_>
          <internalNodes>
            0 -1 1 -1.8919192370958626e-04</internalNodes>
          <leafValues>
            1. -1.</leafValues></_>
        <_>
          <internalNodes>
            0 -1 1 -1.8919192370958626e-04</internalNodes>
          <leafValues>
            1. -1.</leafValues></_>
        <_>
          <internalNodes>
            0 -1 1 -1.8919192370958626e-04</internalNodes>
          <leafValues>
            1. -1.</leafValues></_>
        <_>
          <internalNodes>
            0 -1 1 -1.8919192370958626e-04</internalNodes>
          <leafValues>
            1. -1.</leafValues></_>
        <_>
          <internalNodes>
            0 -1 1 -1.8919192370958626e-04</internalNodes>
          <leafValues>
            1. -1.</leafValues></_>
        <_>
          <internalNodes>
            0 -1 1 -1.8919192370958626e-04</internalNodes>
          <leafValues>
            1. -1.</leafValues></_>
        <_>
          <internalNodes>
            0 -1 1 -1.8919192370958626e-04</internalNodes>
          <leafValues>
            1. -1.</leafValues></_>
        <_>
          <internalNodes>
            0 -1 1 -1.8919192370958626e-04</internalNodes>
          <leafValues>
            1. -1.</leafValues></_>
        <_>
          <internalNodes>
            0 -1 1 -1.8919192370958626e-04</internalNodes>
          <leafValues>
            1. -1.</leafValues></_>
        <_>
          <internalNodes>
            0 -1 1 -1.8919192370958626e-04</internalNodes>
          <leafValues>
            1. -1.</leafValues></_>
        <_>
          <internalNodes>
            0 -1 1 -1.8919192370958626e-04</internalNodes>
          <leafValues>
            1. -1.</leafValues></_>
        <_>
          <internalNodes>
            0 -1 1 -1.8919192370958626e-04</internalNodes>
          <leafValues>
            1. -1.</leafValues></_>
        <_>
          <internalNodes>
            0 -1 1 -1.8919192370958626e-04</internalNodes>
          <leafValues>
            1. -1.</leafValues></_>
        <_>
          <internalNodes>
            0 -1 1 -1.8919192370958626e-04</internalNodes>
          <leafValues>
            1. -1.</leafValues></_>
        <_>
          <internalNodes>
            0 -1 1 -1.8919192370958626e-04</internalNodes>
          <leafValues>
            1. -1.</leafValues></_>
        <_>
          <internalNodes>
            0 -1 1 -1.8919192370958626e-04</internalNodes>
          <leafValues>
            1. -1.</leafValues></_>
        <_>
          <internalNodes>
            0 -1 1 -1.8919192370958626e-04</internalNodes>
          <leafValues>
            1. -1.</leafValues></_>
        <_>
          <internalNodes>
            0 -1 1 -1.8919192370958626e-04</internalNodes>
          <leafValues>
            1. -1.</leafValues></_>
        <_>
          <internalNodes>
            0 -1 1 -1.8919192370958626e-04</internalNodes>
          <leafValues>
            1. -1.</leafValues></_>
        <_>
          <internalNodes>
            0 -1 1 -1.8919192370958626e-04</internalNodes>
          <leafValues>
            1. -1.</leafValues></_>
        <_>
          <internalNodes>
            0 -1 1 -1.8919192370958626e-04</internalNodes>
          <leafValues>
            1. -1.</leafValues></_>
        <_>
          <internalNodes>
            0 -1 1 -1.8919192370958626e-04</internalNodes>
          <leafValues>
            1. -1.</leafValues></_>
        <_>
          <internalNodes>
            0 -1 1 -1.8919192370958626e-04</internalNodes>
          <leafValues>
            1. -1.</leafValues></_>
        <_>
          <internalNodes>
            0 -1 1 -1.8919192370958626e-04</internalNodes>
          <leafValues>
            1. -1.</leafValues></_>
        <_>
          <internalNodes>
            0 -1 1 -1.8919192370958626e-04</internalNodes>
          <leafValues>
            1. -1.</leafValues></_>
        <_>
          <internalNodes>
            0 -1 1 -1.8919192370958626e-04</internalNodes>
          <leafValues>
            1. -1.</leafValues></_>
        <_>
          <internalNodes>
            0 -1 1 -1.8919192370958626e-04</internalNodes>
          <leafValues>
            1. -1.</leafValues></_>
        <_>
          <internalNodes>
            0 -1 1 -1.8919192370958626e-04</internalNodes>
          <leafValues>
            1. -1.</leafValues></_>
        <_>
          <internalNodes>
            0 -1 1 -1.8919192370958626e-04</internalNodes>
          <leafValues>
            1. -1.</leafValues></_>
        <_>
          <internalNodes>
            0 -1 1 -1.8919192370958626e-04</internalNodes>
          <leafValues>
            1. -1.</leafValues></_>
        <_>
          <internalNodes>
            0 -1 1 -1.8919192370958626e-04</internalNodes>
          <leafValues>
            1. -1.</leafValues></_>
        <_>
          <internalNodes>
            0 -1 1 -1.8919192370958626e-04</internalNodes>
          <leafValues>
            1. -1.</leafValues></_></weakClassifiers></_>
    <!-- stage 3 -->
    <_>
      <maxWeakCount>100</maxWeakCount>
      <stageThreshold>-100.</stageThreshold>
      <weakClassifiers>
        <_>
          <internalNodes>
            0 -1 3 1.4603890012949705e-03</internalNodes>
          <leafValues>
            1. -1.</leafValues></_>
        <_>
          <internalNodes>
            0 -1 3 1.4603890012949705e-03</internalNodes>
          <leafValues>
            1. -1.</leafValues></_>
        <_>
          <internalNodes>
            0 -1 3 1.4603890012949705e-03</internalNodes>
          <leafValues>
            1. -1.</leafValues></_>
        <_>
          <internalNodes>
            0 -1 3 1.4603890012949705e-03</internalNodes>
          <leafValues>
            1. -1.</leafValues></_>
        <_>
          <internalNodes>
            0 -1 3 1.4603890012949705e-03</internalNodes>
          <leafValues>
            1. -1.</leafValues></_>
        <_>
          <internalNodes>
            0 -1 3 1.4603890012949705e-03</internalNodes>
          <leafValues>
            1. -1.</leafValues></_>
        <_>
          <internalNodes>
            0 -1 3 1.4603890012949705e-03</internalNodes>
          <leafValues>
            1. -1.</leafValues></_>
        <_>
          <internalNodes>
            0 -1 3 1.4603890012949705e-03</internalNodes>
          <leafValues>
            1. -1.</leafValues></_>
        <_>
          <internalNodes>
            0 -1 3 1.4603890012949705e-03</internalNodes>
          <leafValues>
            1. -1.</leafValues></_>
        <_>
          <internalNodes>
            0 -1 3 1.4603890012949705e-03</internalNodes>
          <leafValues>
            1. -1.</leafValues></_>
        <_>
          <internalNodes>
            0 -1 3 1.4603890012949705e-03</internalNodes>
          <leafValues>
            1. -1.</leafValues></_>
        <_>
          <internalNodes>
            0 -1 3 1.4603890012949705e-03</internalNodes>
          <leafValues>
            1. -1.</leafValues></_>
        <_>
          <internalNodes>
            0 -1 3 1.4603890012949705e-03</internalNodes>
          <leafValues>
            1. -1.</leafValues></_>
        <_>
          <internalNodes>
            0 -1 3 1.4603890012949705e-03</internalNodes>
          <leafValues>
            1. -1.</leafValues></_>
        <_>
          <internalNodes>
            0 -1 3 1.4603890012949705e-03</internalNodes>
          <leafValues>
            1. -1.</leafValues></_>
        <_>
          <internalNodes>
            0 -1 3 1.4603890012949705e-03</internalNodes>
          <leafValues>
            1. -1.</leafValues></_>
        <_>
          <internalNodes>
            0 -1 3 1.4603890012949705e-03</internalNodes>
          <leafValues>
            1. -1.</leafValues></_>
        <_>
          <internalNodes>
            0 -1 3 1.4603890012949705e-03</internalNodes>
          <leafValues>
            1. -1.</leafValues></_>
        <_>
          <internalNodes>
            0 -1 3 1.4603890012949705e-03</internalNodes>
          <leafValues>
            1. -1.</leafValues></_>
        <_>
          <internalNodes>
            0 -1 3 1.4603890012949705e-03</internalNodes>
          <leafValues>
            1. -1.</leafValues></_>
        <_>
          <internalNodes>
            0 -1 3 1.4603890012949705e-03</internalNodes>
          <leafValues>
            1. -1.</leafValues></_>
        <_>
          <internalNodes>
            0 -1 3 1.4603890012949705e-03</internalNodes>
          <leafValues>
            1. -1.</leafValues></_>
        <_>
          <internalNodes>
            0 -1 3 1.4603890012949705e-03</internalNodes>
          <leafValues>
            1. -1.</leafValues></_>
        <_>
          <internalNodes>
            0 -1 3 1.4603890012949705e-03</internalNodes>
          <leafValues>
            1. -1.</leafValues></_>
        <_>
          <internalNodes>
            0 -1 3 1.4603890012949705e-03</internalNodes>
          <leafValues>
            1. -1.</leafValues></_>
        <_>
          <internalNodes>
            0 -1 3 1.4603890012949705e-03</internalNodes>
          <leafValues>
            1. -1.</leafValues></_>
        <_>
          <internalNodes>
            0 -1 3 1.4603890012949705e-03</internalNodes>
          <leafValues>
            1. -1.</leafValues></_>
        <_>
          <internalNodes>
            0 -1 3 1.4603890012949705e-03</internalNodes>
          <leafValues>
            1. -1.</leafValues></_>
        <_>
          <internalNodes>
            0 -1 3 1.4603890012949705e-03</internalNodes>
          <leafValues>
            1. -1.</leafValues></_>
        <_>
          <internalNodes>
            0 -1 3 1.4603890012949705e-03</internalNodes>
          <leafValues>
            1. -1.</leafValues></_>
        <_>
          <internalNodes>
            0 -1 3 1.4603890012949705e-03</internalNodes>
          <leafValues>
            1. -1.</leafValues></_>
        <_>
          <internalNodes>
            0 -1 3 1.4603890012949705e-03</internalNodes>
          <leafValues>
            1. -1.</leafValues></_>
        <_>
          <internalNodes>
            0 -1 3 1.4603890012949705e-03</internalNodes>
          <leafValues>
            1. -1.</leafValues></_>
        <_>
          <internalNodes>
            0 -1 3 1.4603890012949705e-03</internalNodes>
          <leafValues>
            1. -1.</leafValues></_>
        <_>
          <internalNodes>
            0 -1 3 1.4603890012949705e-03</internalNodes>
          <leafValues>
            1. -1.</leafValues></_>
        <_>
          <internalNodes>
            0 -1 3 1.4603890012949705e-03</internalNodes>
          <leafValues>
            1. -1.</leafValues></_>
        <_>
          <internalNodes>
            0 -1 3 1.4603890012949705e-03</internalNodes>
          <leafValues>
            1. -1.</leafValues></_>
        <_>
          <internalNodes>
            0 -1 3 1.4603890012949705e-03</internalNodes>
          <leafValues>
            1. -1.</leafValues></_>
        <_>
          <internalNodes>
            0 -1 3 1.4603890012949705e-03</internalNodes>
          <leafValues>
            1. -1.</leafValues></_>
        <_>
          <internalNodes>
            0 -1 3 1.4603890012949705e-03</internalNodes>
          <leafValues>
            1. -1.</leafValues></_>
        <_>
          <internalNodes>
            0 -1 3 1.4603890012949705e-03</internalNodes>
          <leafValues>
            1. -1.</leafValues></_>
        <_>
          <internalNodes>
            0 -1 3 1.4603890012949705e-03</internalNodes>
          <leafValues>
            1. -1.</leafValues></_>
        <_>
          <internalNodes>
            0 -1 3 1.4603890012949705e-03</internalNodes>
          <leafValues>
            1. -1.</leafValues></_>
        <_>
          <internalNodes>
            0 -1 3 1.4603890012949705e-03</internalNodes>
          <leafValues>
            1. -1.</leafValues></_>
        <_>
          <internalNodes>
            0 -1 3 1.4603890012949705e-03</internalNodes>
          <leafValues>
            1. -1.</leafValues></_>
        <_>
          <internalNodes>
            0 -1 3 1.4603890012949705e-03</internalNodes>
          <leafValues>
            1. -1.</leafValues></_>
        <_>
          <internalNodes>
            0 -1 3 1.4603890012949705e-03</internalNodes>
          <leafValues>
            1. -1.</leafValues></_>
        <_>
          <internalNodes>
            0 -1 3 1.4603890012949705e-03</internalNodes>
          <leafValues>
            1. -1.</leafValues></_>
        <_>
          <internalNodes>
            0 -1 3 1.4603890012949705e-03</internalNodes>
          <leafValues>
            1. -1.</leafValues></_>
        <_>
          <internalNodes>
            0 -1 3 1.4603890012949705e-03</internalNodes>
          <leafValues>
            1. -1.</leafValues></_>
        <_>
          <internalNodes>
            0 -1 3 1.4603890012949705e-03</internalNodes>
          <leafValues>
            1. -1.</leafValues></_>
        <_>
          <internalNodes>
            0 -1 3 1.4603890012949705e-03</internalNodes>
          <leafValues>
            1. -1.</leafValues></_>
        <_>
          <internalNodes>
            0 -1 3 1.4603890012949705e-03</internalNodes>
          <leafValues>
            1. -1.</leafValues></_>
        <_>
          <internalNodes>
            0 -1 3 1.4603890012949705e-03</internalNodes>
          <leafValues>
            1. -1.</leafValues></_>
        <_>
          <internalNodes>
            0 -1 3 1.4603890012949705e-03</internalNodes>
          <leafValues>
            1. -1.</leafValues></_>
        <_>
          <internalNodes>
            0 -1 3 1.4603890012949705e-03</internalNodes>
          <leafValues>
            1. -1.</leafValues></_>
        <_>
          <internalNodes>
            0 -1 3 1.4603890012949705e-03</internalNodes>
          <leafValues>
            1. -1.</leafValues></_>
        <_>
          <internalNodes>
            0 -1 3 1.4603890012949705e-03</internalNodes>
          <leafValues>
            1. -1.</leafValues></_>
        <_>
          <internalNodes>
            0 -1 3 1.4603890012949705e-03</internalNodes>
          <leafValues>
            1. -1.</leafValues></_>
        <_>
          <internalNodes>
            0 -1 3 1.4603890012949705e-03</internalNodes>
          <leafValues>
            1. -1.</leafValues></_>
        <_>
          <internalNodes>
            0 -1 3 1.4603890012949705e-03</internalNodes>
          <leafValues>
            1. -1.</leafValues></_>
        <_>
          <internalNodes>
            0 -1 3 1.4603890012949705e-03</internalNodes>
          <leafValues>
            1. -1.</leafValues></_>
        <_>
          <internalNodes>
            0 -1 3 1.4603890012949705e-03</internalNodes>
          <leafValues>
            1. -1.</leafValues></_>
        <_>
          <internalNodes>
            0 -1 3 1.4603890012949705e-03</internalNodes>
          <leafValues>
            1. -1.</leafValues></_>
        <_>
          <internalNodes>
            0 -1 3 1.4603890012949705e-03</internalNodes>
          <leafValues>
            1. -1.</leafValues></_>
        <_>
          <internalNodes>
            0 -1 3 1.4603890012949705e-03</internalNodes>
          <leafValues>
            1. -1.</leafValues></_>
        <_>
          <internalNodes>
            0 -1 3 1.4603890012949705e-03</internalNodes>
          <leafValues>
            1. -1.</leafValues></_>
        <_>
          <internalNodes>
            0 -1 3 1.4603890012949705e-03</internalNodes>
          <leafValues>
            1. -1.</leafValues></_>
        <_>
          <internalNodes>
            0 -1 3 1.4603890012949705e-03</internalNodes>
          <leafValues>
            1. -1.</leafValues></_>
        <_>
          <internalNodes>
            0 -1 3 1.4603890012949705e-03</internalNodes>
          <leafValues>
            1. -1.</leafValues></_>
        <_>
          <internalNodes>
            0 -1 3 1.4603890012949705e-03</internalNodes>
          <leafValues>
            1. -1.</leafValues></_>
        <_>
          <internalNodes>
            0 -1 3 1.4603890012949705e-03</internalNodes>
          <leafValues>
            1. -1.</leafValues></_>
        <_>
          <internalNodes>
            0 -1 3 1.4603890012949705e-03</internalNodes>
          <leafValues>
            1. -1.</leafValues></_>
        <_>
          <internalNodes>
            0 -1 3 1.4603890012949705e-03</internalNodes>
          <leafValues>
            1. -1.</leafValues></_>
        <_>
          <internalNodes>
            0 -1 3 1.4603890012949705e-03</internalNodes>
          <leafValues>
            1. -1.</leafValues></_>
        <_>
          <internalNodes>
            0 -1 3 1.4603890012949705e-03</internalNodes>
          <leafValues>
            1. -1.</leafValues></_>
        <_>
          <internalNodes>
            0 -1 3 1.4603890012949705e-03</internalNodes>
          <leafValues>
            1. -1.</leafValues></_>
        <_>
          <internalNodes>
            0 -1 3 1.4603890012949705e-03</internalNodes>
          <leafValues>
            1. -1.</leafValues></_>
        <_>
          <internalNodes>
            0 -1 3 1.4603890012949705e-03</internalNodes>
          <leafValues>
            1. -1.</leafValues></_>
        <_>
          <internalNodes>
            0 -1 3 1.4603890012949705e-03</internalNodes>
          <leafValues>
            1. -1.</leafValues></_>
        <_>
          <internalNodes>
            0 -1 3 1.4603890012949705e-03</internalNodes>
          <leafValues>
            1. -1.</leafValues></_>
        <_>
          <internalNodes>
            0 -1 3 1.4603890012949705e-03</internalNodes>
          <leafValues>
            1. -1.</leafValues></_>
        <_>
          <internalNodes>
            0 -1 3 1.4603890012949705e-03</internalNodes>
          <leafValues>
            1. -1.</leafValues></_>
        <_>
          <internalNodes>
            0 -1 3 1.4603890012949705e-03</internalNodes>
          <leafValues>
            1. -1.</leafValues></_>
        <_>
          <internalNodes>
            0 -1 3 1.4603890012949705e-03</internalNodes>
          <leafValues>
            1. -1.</leafValues></_>
        <_>
          <internalNodes>
            0 -1 3 1.4603890012949705e-03</internalNodes>
          <leafValues>
            1. -1.</leafValues></_>
        <_>
          <internalNodes>
            0 -1 3 1.4603890012949705e-03</internalNodes>
          <leafValues>
            1. -1.</leafValues></_>
        <_>
          <internalNodes>
            0 -1 3 1.4603890012949705e-03</internalNodes>
          <leafValues>
            1. -1.</leafValues></_>
        <_>
          <internalNodes>
            0 -1 3 1.4603890012949705e-03</internalNodes>
          <leafValues>
            1. -1.</leafValues></_>
        <_>
          <internalNodes>
            0 -1 3 1.4603890012949705e-03</internalNodes>
          <leafValues>
            1. -1.</leafValues></_>
        <_>
          <internalNodes>
            0 -1 3 1.4603890012949705e-03</internalNodes>
          <leafValues>
            1. -1.</leafValues></_>
        <_>
          <internalNodes>
            0 -1 3 1.4603890012949705e-03</internalNodes>
          <leafValues>
            1. -1.</leafValues></_>
        <_>
          <internalNodes>
            0 -1 3 1.4603890012949705e-03</internalNodes>
          <leafValues>
            1. -1.</leafValues></_>
        <_>
          <internalNodes>
            0 -1 3 1.4603890012949705e-03</internalNodes>
          <leafValues>
            1. -1.</leafValues></_>
        <_>
          <internalNodes>
            0 -1 3 1.4603890012949705e-03</internalNodes>
          <leafValues>
            1. -1.</leafValues></_>
        <_>
          <internalNodes>
            0 -1 3 1.4603890012949705e-03</internalNodes>
          <leafValues>
            1. -1.</leafValues></_>
        <_>
          <internalNodes>
            0 -1 3 1.4603890012949705e-03</internalNodes>
          <leafValues>
            1. -1.</leafValues></_>
        <_>
          <internalNodes>
            0 -1 3 1.4603890012949705e-03</internalNodes>
          <leafValues>
            1. -1.</leafValues></_>
        <_>
          <internalNodes>
            0 -1 3 1.4603890012949705e-03</internalNodes>
          <leafValues>
            1. -1.</leafValues></_>
        <_>
          <internalNodes>
            0 -1 3 1.4603890012949705e-03</internalNodes>
          <leafValues>
            1. -1.</leafValues></_></weakClassifiers></_>
    <!-- stage 4 -->
    <_>
      <maxWeakCount>100</maxWeakCount>
      <stageThreshold>-9.9667930603027344e+01</stageThreshold>
      <weakClassifiers>
        <_>
          <internalNodes>
            0 -1 0 1.0928279953077435e-03</internalNodes>
          <leafValues>
            -6.6793411970138550e-01 -6.6423356533050537e-01</leafValues></_>
        <_>
          <internalNodes>
            0 -1 2 2.5839009322226048e-04</internalNodes>
          <leafValues>
            1. -1.</leafValues></_>
        <_>
          <internalNodes>
            0 -1 2 2.5839009322226048e-04</internalNodes>
          <leafValues>
            1. -1.</leafValues></_>
        <_>
          <internalNodes>
            0 -1 2 2.5839009322226048e-04</internalNodes>
          <leafValues>
            1. -1.</leafValues></_>
        <_>
          <internalNodes>
            0 -1 2 2.5839009322226048e-04</internalNodes>
          <leafValues>
            1. -1.</leafValues></_>
        <_>
          <internalNodes>
            0 -1 2 2.5839009322226048e-04</internalNodes>
          <leafValues>
            1. -1.</leafValues></_>
        <_>
          <internalNodes>
            0 -1 2 2.5839009322226048e-04</internalNodes>
          <leafValues>
            1. -1.</leafValues></_>
        <_>
          <internalNodes>
            0 -1 2 2.5839009322226048e-04</internalNodes>
          <leafValues>
            1. -1.</leafValues></_>
        <_>
          <internalNodes>
            0 -1 2 2.5839009322226048e-04</internalNodes>
          <leafValues>
            1. -1.</leafValues></_>
        <_>
          <internalNodes>
            0 -1 2 2.5839009322226048e-04</internalNodes>
          <leafValues>
            1. -1.</leafValues></_>
        <_>
          <internalNodes>
            0 -1 2 2.5839009322226048e-04</internalNodes>
          <leafValues>
            1. -1.</leafValues></_>
        <_>
          <internalNodes>
            0 -1 2 2.5839009322226048e-04</internalNodes>
          <leafValues>
            1. -1.</leafValues></_>
        <_>
          <internalNodes>
            0 -1 2 2.5839009322226048e-04</internalNodes>
          <leafValues>
            1. -1.</leafValues></_>
        <_>
          <internalNodes>
            0 -1 2 2.5839009322226048e-04</internalNodes>
          <leafValues>
            1. -1.</leafValues></_>
        <_>
          <internalNodes>
            0 -1 2 2.5839009322226048e-04</internalNodes>
          <leafValues>
            1. -1.</leafValues></_>
        <_>
          <internalNodes>
            0 -1 2 2.5839009322226048e-04</internalNodes>
          <leafValues>
            1. -1.</leafValues></_>
        <_>
          <internalNodes>
            0 -1 2 2.5839009322226048e-04</internalNodes>
          <leafValues>
            1. -1.</leafValues></_>
        <_>
          <internalNodes>
            0 -1 2 2.5839009322226048e-04</internalNodes>
          <leafValues>
            1. -1.</leafValues></_>
        <_>
          <internalNodes>
            0 -1 2 2.5839009322226048e-04</internalNodes>
          <leafValues>
            1. -1.</leafValues></_>
        <_>
          <internalNodes>
            0 -1 2 2.5839009322226048e-04</internalNodes>
          <leafValues>
            1. -1.</leafValues></_>
        <_>
          <internalNodes>
            0 -1 2 2.5839009322226048e-04</internalNodes>
          <leafValues>
            1. -1.</leafValues></_>
        <_>
          <internalNodes>
            0 -1 2 2.5839009322226048e-04</internalNodes>
          <leafValues>
            1. -1.</leafValues></_>
        <_>
          <internalNodes>
            0 -1 2 2.5839009322226048e-04</internalNodes>
          <leafValues>
            1. -1.</leafValues></_>
        <_>
          <internalNodes>
            0 -1 2 2.5839009322226048e-04</internalNodes>
          <leafValues>
            1. -1.</leafValues></_>
        <_>
          <internalNodes>
            0 -1 2 2.5839009322226048e-04</internalNodes>
          <leafValues>
            1. -1.</leafValues></_>
        <_>
          <internalNodes>
            0 -1 2 2.5839009322226048e-04</internalNodes>
          <leafValues>
            1. -1.</leafValues></_>
        <_>
          <internalNodes>
            0 -1 2 2.5839009322226048e-04</internalNodes>
          <leafValues>
            1. -1.</leafValues></_>
        <_>
          <internalNodes>
            0 -1 2 2.5839009322226048e-04</internalNodes>
          <leafValues>
            1. -1.</leafValues></_>
        <_>
          <internalNodes>
            0 -1 2 2.5839009322226048e-04</internalNodes>
          <leafValues>
            1. -1.</leafValues></_>
        <_>
          <internalNodes>
            0 -1 2 2.5839009322226048e-04</internalNodes>
          <leafValues>
            1. -1.</leafValues></_>
        <_>
          <internalNodes>
            0 -1 2 2.5839009322226048e-04</internalNodes>
          <leafValues>
            1. -1.</leafValues></_>
        <_>
          <internalNodes>
            0 -1 2 2.5839009322226048e-04</internalNodes>
          <leafValues>
            1. -1.</leafValues></_>
        <_>
          <internalNodes>
            0 -1 2 2.5839009322226048e-04</internalNodes>
          <leafValues>
            1. -1.</leafValues></_>
        <_>
          <internalNodes>
            0 -1 2 2.5839009322226048e-04</internalNodes>
          <leafValues>
            1. -1.</leafValues></_>
        <_>
          <internalNodes>
            0 -1 2 2.5839009322226048e-04</internalNodes>
          <leafValues>
            1. -1.</leafValues></_>
        <_>
          <internalNodes>
            0 -1 2 2.5839009322226048e-04</internalNodes>
          <leafValues>
            1. -1.</leafValues></_>
        <_>
          <internalNodes>
            0 -1 2 2.5839009322226048e-04</internalNodes>
          <leafValues>
            1. -1.</leafValues></_>
        <_>
          <internalNodes>
            0 -1 2 2.5839009322226048e-04</internalNodes>
          <leafValues>
            1. -1.</leafValues></_>
        <_>
          <internalNodes>
            0 -1 2 2.5839009322226048e-04</internalNodes>
          <leafValues>
            1. -1.</leafValues></_>
        <_>
          <internalNodes>
            0 -1 2 2.5839009322226048e-04</internalNodes>
          <leafValues>
            1. -1.</leafValues></_>
        <_>
          <internalNodes>
            0 -1 2 2.5839009322226048e-04</internalNodes>
          <leafValues>
            1. -1.</leafValues></_>
        <_>
          <internalNodes>
            0 -1 2 2.5839009322226048e-04</internalNodes>
          <leafValues>
            1. -1.</leafValues></_>
        <_>
          <internalNodes>
            0 -1 2 2.5839009322226048e-04</internalNodes>
          <leafValues>
            1. -1.</leafValues></_>
        <_>
          <internalNodes>
            0 -1 2 2.5839009322226048e-04</internalNodes>
          <leafValues>
            1. -1.</leafValues></_>
        <_>
          <internalNodes>
            0 -1 2 2.5839009322226048e-04</internalNodes>
          <leafValues>
            1. -1.</leafValues></_>
        <_>
          <internalNodes>
            0 -1 2 2.5839009322226048e-04</internalNodes>
          <leafValues>
            1. -1.</leafValues></_>
        <_>
          <internalNodes>
            0 -1 2 2.5839009322226048e-04</internalNodes>
          <leafValues>
            1. -1.</leafValues></_>
        <_>
          <internalNodes>
            0 -1 2 2.5839009322226048e-04</internalNodes>
          <leafValues>
            1. -1.</leafValues></_>
        <_>
          <internalNodes>
            0 -1 2 2.5839009322226048e-04</internalNodes>
          <leafValues>
            1. -1.</leafValues></_>
        <_>
          <internalNodes>
            0 -1 2 2.5839009322226048e-04</internalNodes>
          <leafValues>
            1. -1.</leafValues></_>
        <_>
          <internalNodes>
            0 -1 2 2.5839009322226048e-04</internalNodes>
          <leafValues>
            1. -1.</leafValues></_>
        <_>
          <internalNodes>
            0 -1 2 2.5839009322226048e-04</internalNodes>
          <leafValues>
            1. -1.</leafValues></_>
        <_>
          <internalNodes>
            0 -1 2 2.5839009322226048e-04</internalNodes>
          <leafValues>
            1. -1.</leafValues></_>
        <_>
          <internalNodes>
            0 -1 2 2.5839009322226048e-04</internalNodes>
          <leafValues>
            1. -1.</leafValues></_>
        <_>
          <internalNodes>
            0 -1 2 2.5839009322226048e-04</internalNodes>
          <leafValues>
            1. -1.</leafValues></_>
        <_>
          <internalNodes>
            0 -1 2 2.5839009322226048e-04</internalNodes>
          <leafValues>
            1. -1.</leafValues></_>
        <_>
          <internalNodes>
            0 -1 2 2.5839009322226048e-04</internalNodes>
          <leafValues>
            1. -1.</leafValues></_>
        <_>
          <internalNodes>
            0 -1 2 2.5839009322226048e-04</internalNodes>
          <leafValues>
            1. -1.</leafValues></_>
        <_>
          <internalNodes>
            0 -1 2 2.5839009322226048e-04</internalNodes>
          <leafValues>
            1. -1.</leafValues></_>
        <_>
          <internalNodes>
            0 -1 2 2.5839009322226048e-04</internalNodes>
          <leafValues>
            1. -1.</leafValues></_>
        <_>
          <internalNodes>
            0 -1 2 2.5839009322226048e-04</internalNodes>
          <leafValues>
            1. -1.</leafValues></_>
        <_>
          <internalNodes>
            0 -1 2 2.5839009322226048e-04</internalNodes>
          <leafValues>
            1. -1.</leafValues></_>
        <_>
          <internalNodes>
            0 -1 2 2.5839009322226048e-04</internalNodes>
          <leafValues>
            1. -1.</leafValues></_>
        <_>
          <internalNodes>
            0 -1 2 2.5839009322226048e-04</internalNodes>
          <leafValues>
            1. -1.</leafValues></_>
        <_>
          <internalNodes>
            0 -1 2 2.5839009322226048e-04</internalNodes>
          <leafValues>
            1. -1.</leafValues></_>
        <_>
          <internalNodes>
            0 -1 2 2.5839009322226048e-04</internalNodes>
          <leafValues>
            1. -1.</leafValues></_>
        <_>
          <internalNodes>
            0 -1 2 2.5839009322226048e-04</internalNodes>
          <leafValues>
            1. -1.</leafValues></_>
        <_>
          <internalNodes>
            0 -1 2 2.5839009322226048e-04</internalNodes>
          <leafValues>
            1. -1.</leafValues></_>
        <_>
          <internalNodes>
            0 -1 2 2.5839009322226048e-04</internalNodes>
          <leafValues>
            1. -1.</leafValues></_>
        <_>
          <internalNodes>
            0 -1 2 2.5839009322226048e-04</internalNodes>
          <leafValues>
            1. -1.</leafValues></_>
        <_>
          <internalNodes>
            0 -1 2 2.5839009322226048e-04</internalNodes>
          <leafValues>
            1. -1.</leafValues></_>
        <_>
          <internalNodes>
            0 -1 2 2.5839009322226048e-04</internalNodes>
          <leafValues>
            1. -1.</leafValues></_>
        <_>
          <internalNodes>
            0 -1 2 2.5839009322226048e-04</internalNodes>
          <leafValues>
            1. -1.</leafValues></_>
        <_>
          <internalNodes>
            0 -1 2 2.5839009322226048e-04</internalNodes>
          <leafValues>
            1. -1.</leafValues></_>
        <_>
          <internalNodes>
            0 -1 2 2.5839009322226048e-04</internalNodes>
          <leafValues>
            1. -1.</leafValues></_>
        <_>
          <internalNodes>
            0 -1 2 2.5839009322226048e-04</internalNodes>
          <leafValues>
            1. -1.</leafValues></_>
        <_>
          <internalNodes>
            0 -1 2 2.5839009322226048e-04</internalNodes>
          <leafValues>
            1. -1.</leafValues></_>
        <_>
          <internalNodes>
            0 -1 2 2.5839009322226048e-04</internalNodes>
          <leafValues>
            1. -1.</leafValues></_>
        <_>
          <internalNodes>
            0 -1 2 2.5839009322226048e-04</internalNodes>
          <leafValues>
            1. -1.</leafValues></_>
        <_>
          <internalNodes>
            0 -1 2 2.5839009322226048e-04</internalNodes>
          <leafValues>
            1. -1.</leafValues></_>
        <_>
          <internalNodes>
            0 -1 2 2.5839009322226048e-04</internalNodes>
          <leafValues>
            1. -1.</leafValues></_>
        <_>
          <internalNodes>
            0 -1 2 2.5839009322226048e-04</internalNodes>
          <leafValues>
            1. -1.</leafValues></_>
        <_>
          <internalNodes>
            0 -1 2 2.5839009322226048e-04</internalNodes>
          <leafValues>
            1. -1.</leafValues></_>
        <_>
          <internalNodes>
            0 -1 2 2.5839009322226048e-04</internalNodes>
          <leafValues>
            1. -1.</leafValues></_>
        <_>
          <internalNodes>
            0 -1 2 2.5839009322226048e-04</internalNodes>
          <leafValues>
            1. -1.</leafValues></_>
        <_>
          <internalNodes>
            0 -1 2 2.5839009322226048e-04</internalNodes>
          <leafValues>
            1. -1.</leafValues></_>
        <_>
          <internalNodes>
            0 -1 2 2.5839009322226048e-04</internalNodes>
          <leafValues>
            1. -1.</leafValues></_>
        <_>
          <internalNodes>
            0 -1 2 2.5839009322226048e-04</internalNodes>
          <leafValues>
            1. -1.</leafValues></_>
        <_>
          <internalNodes>
            0 -1 2 2.5839009322226048e-04</internalNodes>
          <leafValues>
            1. -1.</leafValues></_>
        <_>
          <internalNodes>
            0 -1 2 2.5839009322226048e-04</internalNodes>
          <leafValues>
            1. -1.</leafValues></_>
        <_>
          <internalNodes>
            0 -1 2 2.5839009322226048e-04</internalNodes>
          <leafValues>
            1. -1.</leafValues></_>
        <_>
          <internalNodes>
            0 -1 2 2.5839009322226048e-04</internalNodes>
          <leafValues>
            1. -1.</leafValues></_>
        <_>
          <internalNodes>
            0 -1 2 2.5839009322226048e-04</internalNodes>
          <leafValues>
            1. -1.</leafValues></_>
        <_>
          <internalNodes>
            0 -1 2 2.5839009322226048e-04</internalNodes>
          <leafValues>
            1. -1.</leafValues></_>
        <_>
          <internalNodes>
            0 -1 2 2.5839009322226048e-04</internalNodes>
          <leafValues>
            1. -1.</leafValues></_>
        <_>
          <internalNodes>
            0 -1 2 2.5839009322226048e-04</internalNodes>
          <leafValues>
            1. -1.</leafValues></_>
        <_>
          <internalNodes>
            0 -1 2 2.5839009322226048e-04</internalNodes>
          <leafValues>
            1. -1.</leafValues></_>
        <_>
          <internalNodes>
            0 -1 2 2.5839009322226048e-04</internalNodes>
          <leafValues>
            1. -1.</leafValues></_>
        <_>
          <internalNodes>
            0 -1 2 2.5839009322226048e-04</internalNodes>
          <leafValues>
            1. -1.</leafValues></_>
        <_>
          <internalNodes>
            0 -1 2 2.5839009322226048e-04</internalNodes>
          <leafValues>
            1. -1.</leafValues></_></weakClassifiers></_>
    <!-- stage 5 -->
    <_>
      <maxWeakCount>100</maxWeakCount>
      <stageThreshold>-100.</stageThreshold>
      <weakClassifiers>
        <_>
          <internalNodes>
            0 -1 2 2.5560811627656221e-03</internalNodes>
          <leafValues>
            1. -1.</leafValues></_>
        <_>
          <internalNodes>
            0 -1 2 2.5560811627656221e-03</internalNodes>
          <leafValues>
            1. -1.</leafValues></_>
        <_>
          <internalNodes>
            0 -1 2 2.5560811627656221e-03</internalNodes>
          <leafValues>
            1. -1.</leafValues></_>
        <_>
          <internalNodes>
            0 -1 2 2.5560811627656221e-03</internalNodes>
          <leafValues>
            1. -1.</leafValues></_>
        <_>
          <internalNodes>
            0 -1 2 2.5560811627656221e-03</internalNodes>
          <leafValues>
            1. -1.</leafValues></_>
        <_>
          <internalNodes>
            0 -1 2 2.5560811627656221e-03</internalNodes>
          <leafValues>
            1. -1.</leafValues></_>
        <_>
          <internalNodes>
            0 -1 2 2.5560811627656221e-03</internalNodes>
          <leafValues>
            1. -1.</leafValues></_>
        <_>
          <internalNodes>
            0 -1 2 2.5560811627656221e-03</internalNodes>
          <leafValues>
            1. -1.</leafValues></_>
        <_>
          <internalNodes>
            0 -1 2 2.5560811627656221e-03</internalNodes>
          <leafValues>
            1. -1.</leafValues></_>
        <_>
          <internalNodes>
            0 -1 2 2.5560811627656221e-03</internalNodes>
          <leafValues>
            1. -1.</leafValues></_>
        <_>
          <internalNodes>
            0 -1 2 2.5560811627656221e-03</internalNodes>
          <leafValues>
            1. -1.</leafValues></_>
        <_>
          <internalNodes>
            0 -1 2 2.5560811627656221e-03</internalNodes>
          <leafValues>
            1. -1.</leafValues></_>
        <_>
          <internalNodes>
            0 -1 2 2.5560811627656221e-03</internalNodes>
          <leafValues>
            1. -1.</leafValues></_>
        <_>
          <internalNodes>
            0 -1 2 2.5560811627656221e-03</internalNodes>
          <leafValues>
            1. -1.</leafValues></_>
        <_>
          <internalNodes>
            0 -1 2 2.5560811627656221e-03</internalNodes>
          <leafValues>
            1. -1.</leafValues></_>
        <_>
          <internalNodes>
            0 -1 2 2.5560811627656221e-03</internalNodes>
          <leafValues>
            1. -1.</leafValues></_>
        <_>
          <internalNodes>
            0 -1 2 2.5560811627656221e-03</internalNodes>
          <leafValues>
            1. -1.</leafValues></_>
        <_>
          <internalNodes>
            0 -1 2 2.5560811627656221e-03</internalNodes>
          <leafValues>
            1. -1.</leafValues></_>
        <_>
          <internalNodes>
            0 -1 2 2.5560811627656221e-03</internalNodes>
          <leafValues>
            1. -1.</leafValues></_>
        <_>
          <internalNodes>
            0 -1 2 2.5560811627656221e-03</internalNodes>
          <leafValues>
            1. -1.</leafValues></_>
        <_>
          <internalNodes>
            0 -1 2 2.5560811627656221e-03</internalNodes>
          <leafValues>
            1. -1.</leafValues></_>
        <_>
          <internalNodes>
            0 -1 2 2.5560811627656221e-03</internalNodes>
          <leafValues>
            1. -1.</leafValues></_>
        <_>
          <internalNodes>
            0 -1 2 2.5560811627656221e-03</internalNodes>
          <leafValues>
            1. -1.</leafValues></_>
        <_>
          <internalNodes>
            0 -1 2 2.5560811627656221e-03</internalNodes>
          <leafValues>
            1. -1.</leafValues></_>
        <_>
          <internalNodes>
            0 -1 2 2.5560811627656221e-03</internalNodes>
          <leafValues>
            1. -1.</leafValues></_>
        <_>
          <internalNodes>
            0 -1 2 2.5560811627656221e-03</internalNodes>
          <leafValues>
            1. -1.</leafValues></_>
        <_>
          <internalNodes>
            0 -1 2 2.5560811627656221e-03</internalNodes>
          <leafValues>
            1. -1.</leafValues></_>
        <_>
          <internalNodes>
            0 -1 2 2.5560811627656221e-03</internalNodes>
          <leafValues>
            1. -1.</leafValues></_>
        <_>
          <internalNodes>
            0 -1 2 2.5560811627656221e-03</internalNodes>
          <leafValues>
            1. -1.</leafValues></_>
        <_>
          <internalNodes>
            0 -1 2 2.5560811627656221e-03</internalNodes>
          <leafValues>
            1. -1.</leafValues></_>
        <_>
          <internalNodes>
            0 -1 2 2.5560811627656221e-03</internalNodes>
          <leafValues>
            1. -1.</leafValues></_>
        <_>
          <internalNodes>
            0 -1 2 2.5560811627656221e-03</internalNodes>
          <leafValues>
            1. -1.</leafValues></_>
        <_>
          <internalNodes>
            0 -1 2 2.5560811627656221e-03</internalNodes>
          <leafValues>
            1. -1.</leafValues></_>
        <_>
          <internalNodes>
            0 -1 2 2.5560811627656221e-03</internalNodes>
          <leafValues>
            1. -1.</leafValues></_>
        <_>
          <internalNodes>
            0 -1 2 2.5560811627656221e-03</internalNodes>
          <leafValues>
            1. -1.</leafValues></_>
        <_>
          <internalNodes>
            0 -1 2 2.5560811627656221e-03</internalNodes>
          <leafValues>
            1. -1.</leafValues></_>
        <_>
          <internalNodes>
            0 -1 2 2.5560811627656221e-03</internalNodes>
          <leafValues>
            1. -1.</leafValues></_>
        <_>
          <internalNodes>
            0 -1 2 2.5560811627656221e-03</internalNodes>
          <leafValues>
            1. -1.</leafValues></_>
        <_>
          <internalNodes>
            0 -1 2 2.5560811627656221e-03</internalNodes>
          <leafValues>
            1. -1.</leafValues></_>
        <_>
          <internalNodes>
            0 -1 2 2.5560811627656221e-03</internalNodes>
          <leafValues>
            1. -1.</leafValues></_>
        <_>
          <internalNodes>
            0 -1 2 2.5560811627656221e-03</internalNodes>
          <leafValues>
            1. -1.</leafValues></_>
        <_>
          <internalNodes>
            0 -1 2 2.5560811627656221e-03</internalNodes>
          <leafValues>
            1. -1.</leafValues></_>
        <_>
          <internalNodes>
            0 -1 2 2.5560811627656221e-03</internalNodes>
          <leafValues>
            1. -1.</leafValues></_>
        <_>
          <internalNodes>
            0 -1 2 2.5560811627656221e-03</internalNodes>
          <leafValues>
            1. -1.</leafValues></_>
        <_>
          <internalNodes>
            0 -1 2 2.5560811627656221e-03</internalNodes>
          <leafValues>
            1. -1.</leafValues></_>
        <_>
          <internalNodes>
            0 -1 2 2.5560811627656221e-03</internalNodes>
          <leafValues>
            1. -1.</leafValues></_>
        <_>
          <internalNodes>
            0 -1 2 2.5560811627656221e-03</internalNodes>
          <leafValues>
            1. -1.</leafValues></_>
        <_>
          <internalNodes>
            0 -1 2 2.5560811627656221e-03</internalNodes>
          <leafValues>
            1. -1.</leafValues></_>
        <_>
          <internalNodes>
            0 -1 2 2.5560811627656221e-03</internalNodes>
          <leafValues>
            1. -1.</leafValues></_>
        <_>
          <internalNodes>
            0 -1 2 2.5560811627656221e-03</internalNodes>
          <leafValues>
            1. -1.</leafValues></_>
        <_>
          <internalNodes>
            0 -1 2 2.5560811627656221e-03</internalNodes>
          <leafValues>
            1. -1.</leafValues></_>
        <_>
          <internalNodes>
            0 -1 2 2.5560811627656221e-03</internalNodes>
          <leafValues>
            1. -1.</leafValues></_>
        <_>
          <internalNodes>
            0 -1 2 2.5560811627656221e-03</internalNodes>
          <leafValues>
            1. -1.</leafValues></_>
        <_>
          <internalNodes>
            0 -1 2 2.5560811627656221e-03</internalNodes>
          <leafValues>
            1. -1.</leafValues></_>
        <_>
          <internalNodes>
            0 -1 2 2.5560811627656221e-03</internalNodes>
          <leafValues>
            1. -1.</leafValues></_>
        <_>
          <internalNodes>
            0 -1 2 2.5560811627656221e-03</internalNodes>
          <leafValues>
            1. -1.</leafValues></_>
        <_>
          <internalNodes>
            0 -1 2 2.5560811627656221e-03</internalNodes>
          <leafValues>
            1. -1.</leafValues></_>
        <_>
          <internalNodes>
            0 -1 2 2.5560811627656221e-03</internalNodes>
          <leafValues>
            1. -1.</leafValues></_>
        <_>
          <internalNodes>
            0 -1 2 2.5560811627656221e-03</internalNodes>
          <leafValues>
            1. -1.</leafValues></_>
        <_>
          <internalNodes>
            0 -1 2 2.5560811627656221e-03</internalNodes>
          <leafValues>
            1. -1.</leafValues></_>
        <_>
          <internalNodes>
            0 -1 2 2.5560811627656221e-03</internalNodes>
          <leafValues>
            1. -1.</leafValues></_>
        <_>
          <internalNodes>
            0 -1 2 2.5560811627656221e-03</internalNodes>
          <leafValues>
            1. -1.</leafValues></_>
        <_>
          <internalNodes>
            0 -1 2 2.5560811627656221e-03</internalNodes>
          <leafValues>
            1. -1.</leafValues></_>
        <_>
          <internalNodes>
            0 -1 2 2.5560811627656221e-03</internalNodes>
          <leafValues>
            1. -1.</leafValues></_>
        <_>
          <internalNodes>
            0 -1 2 2.5560811627656221e-03</internalNodes>
          <leafValues>
            1. -1.</leafValues></_>
        <_>
          <internalNodes>
            0 -1 2 2.5560811627656221e-03</internalNodes>
          <leafValues>
            1. -1.</leafValues></_>
        <_>
          <internalNodes>
            0 -1 2 2.5560811627656221e-03</internalNodes>
          <leafValues>
            1. -1.</leafValues></_>
        <_>
          <internalNodes>
            0 -1 2 2.5560811627656221e-03</internalNodes>
          <leafValues>
            1. -1.</leafValues></_>
        <_>
          <internalNodes>
            0 -1 2 2.5560811627656221e-03</internalNodes>
          <leafValues>
            1. -1.</leafValues></_>
        <_>
          <internalNodes>
            0 -1 2 2.5560811627656221e-03</internalNodes>
          <leafValues>
            1. -1.</leafValues></_>
        <_>
          <internalNodes>
            0 -1 2 2.5560811627656221e-03</internalNodes>
          <leafValues>
            1. -1.</leafValues></_>
        <_>
          <internalNodes>
            0 -1 2 2.5560811627656221e-03</internalNodes>
          <leafValues>
            1. -1.</leafValues></_>
        <_>
          <internalNodes>
            0 -1 2 2.5560811627656221e-03</internalNodes>
          <leafValues>
            1. -1.</leafValues></_>
        <_>
          <internalNodes>
            0 -1 2 2.5560811627656221e-03</internalNodes>
          <leafValues>
            1. -1.</leafValues></_>
        <_>
          <internalNodes>
            0 -1 2 2.5560811627656221e-03</internalNodes>
          <leafValues>
            1. -1.</leafValues></_>
        <_>
          <internalNodes>
            0 -1 2 2.5560811627656221e-03</internalNodes>
          <leafValues>
            1. -1.</leafValues></_>
        <_>
          <internalNodes>
            0 -1 2 2.5560811627656221e-03</internalNodes>
          <leafValues>
            1. -1.</leafValues></_>
        <_>
          <internalNodes>
            0 -1 2 2.5560811627656221e-03</internalNodes>
          <leafValues>
            1. -1.</leafValues></_>
        <_>
          <internalNodes>
            0 -1 2 2.5560811627656221e-03</internalNodes>
          <leafValues>
            1. -1.</leafValues></_>
        <_>
          <internalNodes>
            0 -1 2 2.5560811627656221e-03</internalNodes>
          <leafValues>
            1. -1.</leafValues></_>
        <_>
          <internalNodes>
            0 -1 2 2.5560811627656221e-03</internalNodes>
          <leafValues>
            1. -1.</leafValues></_>
        <_>
          <internalNodes>
            0 -1 2 2.5560811627656221e-03</internalNodes>
          <leafValues>
            1. -1.</leafValues></_>
        <_>
          <internalNodes>
            0 -1 2 2.5560811627656221e-03</internalNodes>
          <leafValues>
            1. -1.</leafValues></_>
        <_>
          <internalNodes>
            0 -1 2 2.5560811627656221e-03</internalNodes>
          <leafValues>
            1. -1.</leafValues></_>
        <_>
          <internalNodes>
            0 -1 2 2.5560811627656221e-03</internalNodes>
          <leafValues>
            1. -1.</leafValues></_>
        <_>
          <internalNodes>
            0 -1 2 2.5560811627656221e-03</internalNodes>
          <leafValues>
            1. -1.</leafValues></_>
        <_>
          <internalNodes>
            0 -1 2 2.5560811627656221e-03</internalNodes>
          <leafValues>
            1. -1.</leafValues></_>
        <_>
          <internalNodes>
            0 -1 2 2.5560811627656221e-03</internalNodes>
          <leafValues>
            1. -1.</leafValues></_>
        <_>
          <internalNodes>
            0 -1 2 2.5560811627656221e-03</internalNodes>
          <leafValues>
            1. -1.</leafValues></_>
        <_>
          <internalNodes>
            0 -1 2 2.5560811627656221e-03</internalNodes>
          <leafValues>
            1. -1.</leafValues></_>
        <_>
          <internalNodes>
            0 -1 2 2.5560811627656221e-03</internalNodes>
          <leafValues>
            1. -1.</leafValues></_>
        <_>
          <internalNodes>
            0 -1 2 2.5560811627656221e-03</internalNodes>
          <leafValues>
            1. -1.</leafValues></_>
        <_>
          <internalNodes>
            0 -1 2 2.5560811627656221e-03</internalNodes>
          <leafValues>
            1. -1.</leafValues></_>
        <_>
          <internalNodes>
            0 -1 2 2.5560811627656221e-03</internalNodes>
          <leafValues>
            1. -1.</leafValues></_>
        <_>
          <internalNodes>
            0 -1 2 2.5560811627656221e-03</internalNodes>
          <leafValues>
            1. -1.</leafValues></_>
        <_>
          <internalNodes>
            0 -1 2 2.5560811627656221e-03</internalNodes>
          <leafValues>
            1. -1.</leafValues></_>
        <_>
          <internalNodes>
            0 -1 2 2.5560811627656221e-03</internalNodes>
          <leafValues>
            1. -1.</leafValues></_>
        <_>
          <internalNodes>
            0 -1 2 2.5560811627656221e-03</internalNodes>
          <leafValues>
            1. -1.</leafValues></_>
        <_>
          <internalNodes>
            0 -1 2 2.5560811627656221e-03</internalNodes>
          <leafValues>
            1. -1.</leafValues></_>
        <_>
          <internalNodes>
            0 -1 2 2.5560811627656221e-03</internalNodes>
          <leafValues>
            1. -1.</leafValues></_></weakClassifiers></_>
    <!-- stage 6 -->
    <_>
      <maxWeakCount>100</maxWeakCount>
      <stageThreshold>-9.9678573608398438e+01</stageThreshold>
      <weakClassifiers>
        <_>
          <internalNodes>
            0 -1 0 1.0928279953077435e-03</internalNodes>
          <leafValues>
            -6.7857140302658081e-01 -6.3888889551162720e-01</leafValues></_>
        <_>
          <internalNodes>
            0 -1 1 1.1058722157031298e-03</internalNodes>
          <leafValues>
            1. -1.</leafValues></_>
        <_>
          <internalNodes>
            0 -1 1 1.1058722157031298e-03</internalNodes>
          <leafValues>
            1. -1.</leafValues></_>
        <_>
          <internalNodes>
            0 -1 1 1.1058722157031298e-03</internalNodes>
          <leafValues>
            1. -1.</leafValues></_>
        <_>
          <internalNodes>
            0 -1 1 1.1058722157031298e-03</internalNodes>
          <leafValues>
            1. -1.</leafValues></_>
        <_>
          <internalNodes>
            0 -1 1 1.1058722157031298e-03</internalNodes>
          <leafValues>
            1. -1.</leafValues></_>
        <_>
          <internalNodes>
            0 -1 1 1.1058722157031298e-03</internalNodes>
          <leafValues>
            1. -1.</leafValues></_>
        <_>
          <internalNodes>
            0 -1 1 1.1058722157031298e-03</internalNodes>
          <leafValues>
            1. -1.</leafValues></_>
        <_>
          <internalNodes>
            0 -1 1 1.1058722157031298e-03</internalNodes>
          <leafValues>
            1. -1.</leafValues></_>
        <_>
          <internalNodes>
            0 -1 1 1.1058722157031298e-03</internalNodes>
          <leafValues>
            1. -1.</leafValues></_>
        <_>
          <internalNodes>
            0 -1 1 1.1058722157031298e-03</internalNodes>
          <leafValues>
            1. -1.</leafValues></_>
        <_>
          <internalNodes>
            0 -1 1 1.1058722157031298e-03</internalNodes>
          <leafValues>
            1. -1.</leafValues></_>
        <_>
          <internalNodes>
            0 -1 1 1.1058722157031298e-03</internalNodes>
          <leafValues>
            1. -1.</leafValues></_>
        <_>
          <internalNodes>
            0 -1 1 1.1058722157031298e-03</internalNodes>
          <leafValues>
            1. -1.</leafValues></_>
        <_>
          <internalNodes>
            0 -1 1 1.1058722157031298e-03</internalNodes>
          <leafValues>
            1. -1.</leafValues></_>
        <_>
          <internalNodes>
            0 -1 1 1.1058722157031298e-03</internalNodes>
          <leafValues>
            1. -1.</leafValues></_>
        <_>
          <internalNodes>
            0 -1 1 1.1058722157031298e-03</internalNodes>
          <leafValues>
            1. -1.</leafValues></_>
        <_>
          <internalNodes>
            0 -1 1 1.1058722157031298e-03</internalNodes>
          <leafValues>
            1. -1.</leafValues></_>
        <_>
          <internalNodes>
            0 -1 1 1.1058722157031298e-03</internalNodes>
          <leafValues>
            1. -1.</leafValues></_>
        <_>
          <internalNodes>
            0 -1 1 1.1058722157031298e-03</internalNodes>
          <leafValues>
            1. -1.</leafValues></_>
        <_>
          <internalNodes>
            0 -1 1 1.1058722157031298e-03</internalNodes>
          <leafValues>
            1. -1.</leafValues></_>
        <_>
          <internalNodes>
            0 -1 1 1.1058722157031298e-03</internalNodes>
          <leafValues>
            1. -1.</leafValues></_>
        <_>
          <internalNodes>
            0 -1 1 1.1058722157031298e-03</internalNodes>
          <leafValues>
            1. -1.</leafValues></_>
        <_>
          <internalNodes>
            0 -1 1 1.1058722157031298e-03</internalNodes>
          <leafValues>
            1. -1.</leafValues></_>
        <_>
          <internalNodes>
            0 -1 1 1.1058722157031298e-03</internalNodes>
          <leafValues>
            1. -1.</leafValues></_>
        <_>
          <internalNodes>
            0 -1 1 1.1058722157031298e-03</internalNodes>
          <leafValues>
            1. -1.</leafValues></_>
        <_>
          <internalNodes>
            0 -1 1 1.1058722157031298e-03</internalNodes>
          <leafValues>
            1. -1.</leafValues></_>
        <_>
          <internalNodes>
            0 -1 1 1.1058722157031298e-03</internalNodes>
          <leafValues>
            1. -1.</leafValues></_>
        <_>
          <internalNodes>
            0 -1 1 1.1058722157031298e-03</internalNodes>
          <leafValues>
            1. -1.</leafValues></_>
        <_>
          <internalNodes>
            0 -1 1 1.1058722157031298e-03</internalNodes>
          <leafValues>
            1. -1.</leafValues></_>
        <_>
          <internalNodes>
            0 -1 1 1.1058722157031298e-03</internalNodes>
          <leafValues>
            1. -1.</leafValues></_>
