<?xml version="1.0"?>
<opencv_storage>
<stage3>
  <maxWeakCount>100</maxWeakCount>
  <stageThreshold>-100.</stageThreshold>
  <weakClassifiers>
    <_>
      <internalNodes>
        0 -1 4 1.4603890012949705e-03</internalNodes>
      <leafValues>
        1. -1.</leafValues></_>
    <_>
      <internalNodes>
        0 -1 4 1.4603890012949705e-03</internalNodes>
      <leafValues>
        1. -1.</leafValues></_>
    <_>
      <internalNodes>
        0 -1 4 1.4603890012949705e-03</internalNodes>
      <leafValues>
        1. -1.</leafValues></_>
    <_>
      <internalNodes>
        0 -1 4 1.4603890012949705e-03</internalNodes>
      <leafValues>
        1. -1.</leafValues></_>
    <_>
      <internalNodes>
        0 -1 4 1.4603890012949705e-03</internalNodes>
      <leafValues>
        1. -1.</leafValues></_>
    <_>
      <internalNodes>
        0 -1 4 1.4603890012949705e-03</internalNodes>
      <leafValues>
        1. -1.</leafValues></_>
    <_>
      <internalNodes>
        0 -1 4 1.4603890012949705e-03</internalNodes>
      <leafValues>
        1. -1.</leafValues></_>
    <_>
      <internalNodes>
        0 -1 4 1.4603890012949705e-03</internalNodes>
      <leafValues>
        1. -1.</leafValues></_>
    <_>
      <internalNodes>
        0 -1 4 1.4603890012949705e-03</internalNodes>
      <leafValues>
        1. -1.</leafValues></_>
    <_>
      <internalNodes>
        0 -1 4 1.4603890012949705e-03</internalNodes>
      <leafValues>
        1. -1.</leafValues></_>
    <_>
      <internalNodes>
        0 -1 4 1.4603890012949705e-03</internalNodes>
      <leafValues>
        1. -1.</leafValues></_>
    <_>
      <internalNodes>
        0 -1 4 1.4603890012949705e-03</internalNodes>
      <leafValues>
        1. -1.</leafValues></_>
    <_>
      <internalNodes>
        0 -1 4 1.4603890012949705e-03</internalNodes>
      <leafValues>
        1. -1.</leafValues></_>
    <_>
      <internalNodes>
        0 -1 4 1.4603890012949705e-03</internalNodes>
      <leafValues>
        1. -1.</leafValues></_>
    <_>
      <internalNodes>
        0 -1 4 1.4603890012949705e-03</internalNodes>
      <leafValues>
        1. -1.</leafValues></_>
    <_>
      <internalNodes>
        0 -1 4 1.4603890012949705e-03</internalNodes>
      <leafValues>
        1. -1.</leafValues></_>
    <_>
      <internalNodes>
        0 -1 4 1.4603890012949705e-03</internalNodes>
      <leafValues>
        1. -1.</leafValues></_>
    <_>
      <internalNodes>
        0 -1 4 1.4603890012949705e-03</internalNodes>
      <leafValues>
        1. -1.</leafValues></_>
    <_>
      <internalNodes>
        0 -1 4 1.4603890012949705e-03</internalNodes>
      <leafValues>
        1. -1.</leafValues></_>
    <_>
      <internalNodes>
        0 -1 4 1.4603890012949705e-03</internalNodes>
      <leafValues>
        1. -1.</leafValues></_>
    <_>
      <internalNodes>
        0 -1 4 1.4603890012949705e-03</internalNodes>
      <leafValues>
        1. -1.</leafValues></_>
    <_>
      <internalNodes>
        0 -1 4 1.4603890012949705e-03</internalNodes>
      <leafValues>
        1. -1.</leafValues></_>
    <_>
      <internalNodes>
        0 -1 4 1.4603890012949705e-03</internalNodes>
      <leafValues>
        1. -1.</leafValues></_>
    <_>
      <internalNodes>
        0 -1 4 1.4603890012949705e-03</internalNodes>
      <leafValues>
        1. -1.</leafValues></_>
    <_>
      <internalNodes>
        0 -1 4 1.4603890012949705e-03</internalNodes>
      <leafValues>
        1. -1.</leafValues></_>
    <_>
      <internalNodes>
        0 -1 4 1.4603890012949705e-03</internalNodes>
      <leafValues>
        1. -1.</leafValues></_>
    <_>
      <internalNodes>
        0 -1 4 1.4603890012949705e-03</internalNodes>
      <leafValues>
        1. -1.</leafValues></_>
    <_>
      <internalNodes>
        0 -1 4 1.4603890012949705e-03</internalNodes>
      <leafValues>
        1. -1.</leafValues></_>
    <_>
      <internalNodes>
        0 -1 4 1.4603890012949705e-03</internalNodes>
      <leafValues>
        1. -1.</leafValues></_>
    <_>
      <internalNodes>
        0 -1 4 1.4603890012949705e-03</internalNodes>
      <leafValues>
        1. -1.</leafValues></_>
    <_>
      <internalNodes>
        0 -1 4 1.4603890012949705e-03</internalNodes>
      <leafValues>
        1. -1.</leafValues></_>
    <_>
      <internalNodes>
        0 -1 4 1.4603890012949705e-03</internalNodes>
      <leafValues>
        1. -1.</leafValues></_>
    <_>
      <internalNodes>
        0 -1 4 1.4603890012949705e-03</internalNodes>
      <leafValues>
        1. -1.</leafValues></_>
    <_>
      <internalNodes>
        0 -1 4 1.4603890012949705e-03</internalNodes>
      <leafValues>
        1. -1.</leafValues></_>
    <_>
      <internalNodes>
        0 -1 4 1.4603890012949705e-03</internalNodes>
      <leafValues>
        1. -1.</leafValues></_>
    <_>
      <internalNodes>
        0 -1 4 1.4603890012949705e-03</internalNodes>
      <leafValues>
        1. -1.</leafValues></_>
    <_>
      <internalNodes>
        0 -1 4 1.4603890012949705e-03</internalNodes>
      <leafValues>
        1. -1.</leafValues></_>
    <_>
      <internalNodes>
        0 -1 4 1.4603890012949705e-03</internalNodes>
      <leafValues>
        1. -1.</leafValues></_>
    <_>
      <internalNodes>
        0 -1 4 1.4603890012949705e-03</internalNodes>
      <leafValues>
        1. -1.</leafValues></_>
    <_>
      <internalNodes>
        0 -1 4 1.4603890012949705e-03</internalNodes>
      <leafValues>
        1. -1.</leafValues></_>
    <_>
      <internalNodes>
        0 -1 4 1.4603890012949705e-03</internalNodes>
      <leafValues>
        1. -1.</leafValues></_>
    <_>
      <internalNodes>
        0 -1 4 1.4603890012949705e-03</internalNodes>
      <leafValues>
        1. -1.</leafValues></_>
    <_>
      <internalNodes>
        0 -1 4 1.4603890012949705e-03</internalNodes>
      <leafValues>
        1. -1.</leafValues></_>
    <_>
      <internalNodes>
        0 -1 4 1.4603890012949705e-03</internalNodes>
      <leafValues>
        1. -1.</leafValues></_>
    <_>
      <internalNodes>
        0 -1 4 1.4603890012949705e-03</internalNodes>
      <leafValues>
        1. -1.</leafValues></_>
    <_>
      <internalNodes>
        0 -1 4 1.4603890012949705e-03</internalNodes>
      <leafValues>
        1. -1.</leafValues></_>
    <_>
      <internalNodes>
        0 -1 4 1.4603890012949705e-03</internalNodes>
      <leafValues>
        1. -1.</leafValues></_>
    <_>
      <internalNodes>
        0 -1 4 1.4603890012949705e-03</internalNodes>
      <leafValues>
        1. -1.</leafValues></_>
    <_>
      <internalNodes>
        0 -1 4 1.4603890012949705e-03</internalNodes>
      <leafValues>
        1. -1.</leafValues></_>
    <_>
      <internalNodes>
        0 -1 4 1.4603890012949705e-03</internalNodes>
      <leafValues>
        1. -1.</leafValues></_>
    <_>
      <internalNodes>
        0 -1 4 1.4603890012949705e-03</internalNodes>
      <leafValues>
        1. -1.</leafValues></_>
    <_>
      <internalNodes>
        0 -1 4 1.4603890012949705e-03</internalNodes>
      <leafValues>
        1. -1.</leafValues></_>
    <_>
      <internalNodes>
        0 -1 4 1.4603890012949705e-03</internalNodes>
      <leafValues>
        1. -1.</leafValues></_>
    <_>
      <internalNodes>
        0 -1 4 1.4603890012949705e-03</internalNodes>
      <leafValues>
        1. -1.</leafValues></_>
    <_>
      <internalNodes>
        0 -1 4 1.4603890012949705e-03</internalNodes>
      <leafValues>
        1. -1.</leafValues></_>
    <_>
      <internalNodes>
        0 -1 4 1.4603890012949705e-03</internalNodes>
      <leafValues>
        1. -1.</leafValues></_>
    <_>
      <internalNodes>
        0 -1 4 1.4603890012949705e-03</internalNodes>
      <leafValues>
        1. -1.</leafValues></_>
    <_>
      <internalNodes>
        0 -1 4 1.4603890012949705e-03</internalNodes>
      <leafValues>
        1. -1.</leafValues></_>
    <_>
      <internalNodes>
        0 -1 4 1.4603890012949705e-03</internalNodes>
      <leafValues>
        1. -1.</leafValues></_>
    <_>
      <internalNodes>
        0 -1 4 1.4603890012949705e-03</internalNodes>
      <leafValues>
        1. -1.</leafValues></_>
    <_>
      <internalNodes>
        0 -1 4 1.4603890012949705e-03</internalNodes>
      <leafValues>
        1. -1.</leafValues></_>
    <_>
      <internalNodes>
        0 -1 4 1.4603890012949705e-03</internalNodes>
      <leafValues>
        1. -1.</leafValues></_>
    <_>
      <internalNodes>
        0 -1 4 1.4603890012949705e-03</internalNodes>
      <leafValues>
        1. -1.</leafValues></_>
    <_>
      <internalNodes>
        0 -1 4 1.4603890012949705e-03</internalNodes>
      <leafValues>
        1. -1.</leafValues></_>
    <_>
      <internalNodes>
        0 -1 4 1.4603890012949705e-03</internalNodes>
      <leafValues>
        1. -1.</leafValues></_>
    <_>
      <internalNodes>
        0 -1 4 1.4603890012949705e-03</internalNodes>
      <leafValues>
        1. -1.</leafValues></_>
    <_>
      <internalNodes>
        0 -1 4 1.4603890012949705e-03</internalNodes>
      <leafValues>
        1. -1.</leafValues></_>
    <_>
      <internalNodes>
        0 -1 4 1.4603890012949705e-03</internalNodes>
      <leafValues>
        1. -1.</leafValues></_>
    <_>
      <internalNodes>
        0 -1 4 1.4603890012949705e-03</internalNodes>
      <leafValues>
        1. -1.</leafValues></_>
    <_>
      <internalNodes>
        0 -1 4 1.4603890012949705e-03</internalNodes>
      <leafValues>
        1. -1.</leafValues></_>
    <_>
      <internalNodes>
        0 -1 4 1.4603890012949705e-03</internalNodes>
      <leafValues>
        1. -1.</leafValues></_>
    <_>
      <internalNodes>
        0 -1 4 1.4603890012949705e-03</internalNodes>
      <leafValues>
        1. -1.</leafValues></_>
    <_>
      <internalNodes>
        0 -1 4 1.4603890012949705e-03</internalNodes>
      <leafValues>
        1. -1.</leafValues></_>
    <_>
      <internalNodes>
        0 -1 4 1.4603890012949705e-03</internalNodes>
      <leafValues>
        1. -1.</leafValues></_>
    <_>
      <internalNodes>
        0 -1 4 1.4603890012949705e-03</internalNodes>
      <leafValues>
        1. -1.</leafValues></_>
    <_>
      <internalNodes>
        0 -1 4 1.4603890012949705e-03</internalNodes>
      <leafValues>
        1. -1.</leafValues></_>
    <_>
      <internalNodes>
        0 -1 4 1.4603890012949705e-03</internalNodes>
      <leafValues>
        1. -1.</leafValues></_>
    <_>
      <internalNodes>
        0 -1 4 1.4603890012949705e-03</internalNodes>
      <leafValues>
        1. -1.</leafValues></_>
    <_>
      <internalNodes>
        0 -1 4 1.4603890012949705e-03</internalNodes>
      <leafValues>
        1. -1.</leafValues></_>
    <_>
      <internalNodes>
        0 -1 4 1.4603890012949705e-03</internalNodes>
      <leafValues>
        1. -1.</leafValues></_>
    <_>
      <internalNodes>
        0 -1 4 1.4603890012949705e-03</internalNodes>
      <leafValues>
        1. -1.</leafValues></_>
    <_>
      <internalNodes>
        0 -1 4 1.4603890012949705e-03</internalNodes>
      <leafValues>
        1. -1.</leafValues></_>
    <_>
      <internalNodes>
        0 -1 4 1.4603890012949705e-03</internalNodes>
      <leafValues>
        1. -1.</leafValues></_>
    <_>
      <internalNodes>
        0 -1 4 1.4603890012949705e-03</internalNodes>
      <leafValues>
        1. -1.</leafValues></_>
    <_>
      <internalNodes>
        0 -1 4 1.4603890012949705e-03</internalNodes>
      <leafValues>
        1. -1.</leafValues></_>
    <_>
      <internalNodes>
        0 -1 4 1.4603890012949705e-03</internalNodes>
      <leafValues>
        1. -1.</leafValues></_>
    <_>
      <internalNodes>
        0 -1 4 1.4603890012949705e-03</internalNodes>
      <leafValues>
        1. -1.</leafValues></_>
    <_>
      <internalNodes>
        0 -1 4 1.4603890012949705e-03</internalNodes>
      <leafValues>
        1. -1.</leafValues></_>
    <_>
      <internalNodes>
        0 -1 4 1.4603890012949705e-03</internalNodes>
      <leafValues>
        1. -1.</leafValues></_>
    <_>
      <internalNodes>
        0 -1 4 1.4603890012949705e-03</internalNodes>
      <leafValues>
        1. -1.</leafValues></_>
    <_>
      <internalNodes>
        0 -1 4 1.4603890012949705e-03</internalNodes>
      <leafValues>
        1. -1.</leafValues></_>
    <_>
      <internalNodes>
        0 -1 4 1.4603890012949705e-03</internalNodes>
      <leafValues>
        1. -1.</leafValues></_>
    <_>
      <internalNodes>
        0 -1 4 1.4603890012949705e-03</internalNodes>
      <leafValues>
        1. -1.</leafValues></_>
    <_>
      <internalNodes>
        0 -1 4 1.4603890012949705e-03</internalNodes>
      <leafValues>
        1. -1.</leafValues></_>
    <_>
      <internalNodes>
        0 -1 4 1.4603890012949705e-03</internalNodes>
      <leafValues>
        1. -1.</leafValues></_>
    <_>
      <internalNodes>
        0 -1 4 1.4603890012949705e-03</internalNodes>
      <leafValues>
        1. -1.</leafValues></_>
    <_>
      <internalNodes>
        0 -1 4 1.4603890012949705e-03</internalNodes>
      <leafValues>
        1. -1.</leafValues></_>
    <_>
      <internalNodes>
        0 -1 4 1.4603890012949705e-03</internalNodes>
      <leafValues>
        1. -1.</leafValues></_>
    <_>
      <internalNodes>
        0 -1 4 1.4603890012949705e-03</internalNodes>
      <leafValues>
        1. -1.</leafValues></_>
    <_>
      <internalNodes>
        0 -1 4 1.4603890012949705e-03</internalNodes>
      <leafValues>
        1. -1.</leafValues></_></weakClassifiers></stage3>
</opencv_storage>
