<?xml version="1.0"?>
<opencv_storage>
<cascade>
  <stageType>BOOST</stageType>
  <featureType>HAAR</featureType>
  <height>30</height>
  <width>30</width>
  <stageParams>
    <boostType>GAB</boostType>
    <minHitRate>9.9500000476837158e-01</minHitRate>
    <maxFalseAlarm>1.0000000149011612e-01</maxFalseAlarm>
    <weightTrimRate>9.4999999999999996e-01</weightTrimRate>
    <maxDepth>1</maxDepth>
    <maxWeakCount>100</maxWeakCount></stageParams>
  <featureParams>
    <maxCatCount>0</maxCatCount>
    <featSize>1</featSize>
    <mode>BASIC</mode></featureParams>
  <stageNum>10</stageNum>
  <stages>
    <!-- stage 0 -->
    <_>
      <maxWeakCount>1</maxWeakCount>
      <stageThreshold>9.5121949911117554e-01</stageThreshold>
      <weakClassifiers>
        <_>
          <internalNodes>
            0 -1 14 4.7468318371102214e-04</internalNodes>
          <leafValues>
            -1. 9.5121949911117554e-01</leafValues></_></weakClassifiers></_>
    <!-- stage 1 -->
    <_>
      <maxWeakCount>4</maxWeakCount>
      <stageThreshold>-4.1140788793563843e-01</stageThreshold>
      <weakClassifiers>
        <_>
          <internalNodes>
            0 -1 2 -1.8633229192346334e-03</internalNodes>
          <leafValues>
            7.7435898780822754e-01 -9.1074377298355103e-01</leafValues></_>
        <_>
          <internalNodes>
            0 -1 9 -2.9500823002308607e-03</internalNodes>
          <leafValues>
            7.4842065572738647e-01 -9.2250293493270874e-01</leafValues></_>
        <_>
          <internalNodes>
            0 -1 21 1.6862601041793823e-03</internalNodes>
          <leafValues>
            -8.7099307775497437e-01 7.7402681112289429e-01</leafValues></_>
        <_>
          <internalNodes>
            0 -1 7 -5.8608473045751452e-04</internalNodes>
          <leafValues>
            6.4781206846237183e-01 -9.9696362018585205e-01</leafValues></_></weakClassifiers></_>
    <!-- stage 2 -->
    <_>
      <maxWeakCount>4</maxWeakCount>
      <stageThreshold>-1.8458059430122375e-01</stageThreshold>
      <weakClassifiers>
        <_>
          <internalNodes>
            0 -1 6 -4.2100608348846436e-02</internalNodes>
          <leafValues>
            1. -8.6335402727127075e-01</leafValues></_>
        <_>
          <internalNodes>
            0 -1 12 -5.8258334174752235e-03</internalNodes>
          <leafValues>
            8.4263110160827637e-01 -8.9312505722045898e-01</leafValues></_>
        <_>
          <internalNodes>
            0 -1 10 3.6305811954662204e-04</internalNodes>
          <leafValues>
            -9.4405376911163330e-01 8.0063134431838989e-01</leafValues></_>
        <_>
          <internalNodes>
            0 -1 8 2.7253670850768685e-04</internalNodes>
          <leafValues>
            7.8019613027572632e-01 -9.4604396820068359e-01</leafValues></_></weakClassifiers></_>
    <!-- stage 3 -->
    <_>
      <maxWeakCount>3</maxWeakCount>
      <stageThreshold>-1.0182888507843018e+00</stageThreshold>
      <weakClassifiers>
        <_>
          <internalNodes>
            0 -1 5 1.0783467441797256e-03</internalNodes>
          <leafValues>
            -9.4489467144012451e-01 1.</leafValues></_>
        <_>
          <internalNodes>
            0 -1 20 1.4347171410918236e-02</internalNodes>
          <leafValues>
            -8.7298697233200073e-01 1.</leafValues></_>
        <_>
          <internalNodes>
            0 -1 11 -7.9154095146805048e-04</internalNodes>
          <leafValues>
            -1. 7.9959279298782349e-01</leafValues></_></weakClassifiers></_>
    <!-- stage 4 -->
    <_>
      <maxWeakCount>2</maxWeakCount>
      <stageThreshold>6.6445181146264076e-03</stageThreshold>
      <weakClassifiers>
        <_>
          <internalNodes>
            0 -1 16 9.3503243988379836e-05</internalNodes>
          <leafValues>
            -9.9335545301437378e-01 1.</leafValues></_>
        <_>
          <internalNodes>
            0 -1 13 2.2866953804623336e-04</internalNodes>
          <leafValues>
            -9.7385621070861816e-01 1.</leafValues></_></weakClassifiers></_>
    <!-- stage 5 -->
    <_>
      <maxWeakCount>2</maxWeakCount>
      <stageThreshold>1.6528924927115440e-02</stageThreshold>
      <weakClassifiers>
        <_>
          <internalNodes>
            0 -1 18 -2.9793172143399715e-03</internalNodes>
          <leafValues>
            1. -9.8347109556198120e-01</leafValues></_>
        <_>
          <internalNodes>
            0 -1 19 8.4759150922764093e-05</internalNodes>
          <leafValues>
            -9.7411000728607178e-01 1.</leafValues></_></weakClassifiers></_>
    <!-- stage 6 -->
    <_>
      <maxWeakCount>1</maxWeakCount>
      <stageThreshold>1.</stageThreshold>
      <weakClassifiers>
        <_>
          <internalNodes>
            0 -1 15 -2.3338178289122880e-04</internalNodes>
          <leafValues>
            -1. 1.</leafValues></_></weakClassifiers></_>
    <!-- stage 7 -->
    <_>
      <maxWeakCount>3</maxWeakCount>
      <stageThreshold>-8.5168069601058960e-01</stageThreshold>
      <weakClassifiers>
        <_>
          <internalNodes>
            0 -1 4 4.2406166903674603e-04</internalNodes>
          <leafValues>
            -9.4489467144012451e-01 1.</leafValues></_>
        <_>
          <internalNodes>
            0 -1 17 1.3930719578638673e-03</internalNodes>
          <leafValues>
            -9.0678602457046509e-01 1.</leafValues></_>
        <_>
          <internalNodes>
            0 -1 3 1.1484837159514427e-03</internalNodes>
          <leafValues>
            -8.5179889202117920e-01 1.</leafValues></_></weakClassifiers></_>
    <!-- stage 8 -->
    <_>
      <maxWeakCount>1</maxWeakCount>
      <stageThreshold>1.</stageThreshold>
      <weakClassifiers>
        <_>
          <internalNodes>
            0 -1 0 -4.0399044752120972e-02</internalNodes>
          <leafValues>
            -1. 1.</leafValues></_></weakClassifiers></_>
    <!-- stage 9 -->
    <_>
      <maxWeakCount>1</maxWeakCount>
      <stageThreshold>1.</stageThreshold>
      <weakClassifiers>
        <_>
          <internalNodes>
            0 -1 1 -1.8861733376979828e-02</internalNodes>
          <leafValues>
            -1. 1.</leafValues></_></weakClassifiers></_></stages>
  <features>
    <_>
      <rects>
        <_>
          0 2 20 8 -1.</_>
        <_>
          0 2 10 4 2.</_>
        <_>
          10 6 10 4 2.</_></rects>
      <tilted>0</tilted></_>
    <_>
      <rects>
        <_>
          0 11 14 8 -1.</_>
        <_>
          0 11 7 4 2.</_>
        <_>
          7 15 7 4 2.</_></rects>
      <tilted>0</tilted></_>
    <_>
      <rects>
        <_>
          6 13 3 4 -1.</_>
        <_>
          7 13 1 4 3.</_></rects>
      <tilted>0</tilted></_>
    <_>
      <rects>
        <_>
          7 13 3 3 -1.</_>
        <_>
          8 13 1 3 3.</_></rects>
      <tilted>0</tilted></_>
    <_>
      <rects>
        <_>
          7 14 2 2 -1.</_>
        <_>
          8 14 1 2 2.</_></rects>
      <tilted>0</tilted></_>
    <_>
      <rects>
        <_>
          7 14 3 3 -1.</_>
        <_>
          8 14 1 3 3.</_></rects>
      <tilted>0</tilted></_>
    <_>
      <rects>
        <_>
          8 8 8 16 -1.</_>
        <_>
          12 8 4 16 2.</_></rects>
      <tilted>0</tilted></_>
    <_>
      <rects>
        <_>
          8 14 4 1 -1.</_>
        <_>
          10 14 2 1 2.</_></rects>
      <tilted>0</tilted></_>
    <_>
      <rects>
        <_>
          9 17 2 12 -1.</_>
        <_>
          9 23 2 6 2.</_></rects>
      <tilted>0</tilted></_>
    <_>
      <rects>
        <_>
          10 2 10 2 -1.</_>
        <_>
          10 3 10 1 2.</_></rects>
      <tilted>0</tilted></_>
    <_>
      <rects>
        <_>
          12 12 1 6 -1.</_>
        <_>
          12 14 1 2 3.</_></rects>
      <tilted>0</tilted></_>
    <_>
      <rects>
        <_>
          13 9 5 3 -1.</_>
        <_>
          13 10 5 1 3.</_></rects>
      <tilted>0</tilted></_>
    <_>
      <rects>
        <_>
          15 9 6 13 -1.</_>
        <_>
          17 9 2 13 3.</_></rects>
      <tilted>0</tilted></_>
    <_>
      <rects>
        <_>
          15 10 3 12 -1.</_>
        <_>
          16 10 1 12 3.</_></rects>
      <tilted>0</tilted></_>
    <_>
      <rects>
        <_>
          15 10 2 6 -1.</_>
        <_>
          15 13 2 3 2.</_></rects>
      <tilted>0</tilted></_>
    <_>
      <rects>
        <_>
          15 11 3 3 -1.</_>
        <_>
          16 11 1 3 3.</_></rects>
      <tilted>0</tilted></_>
    <_>
      <rects>
        <_>
          15 14 3 2 -1.</_>
        <_>
          16 14 1 2 3.</_></rects>
      <tilted>0</tilted></_>
    <_>
      <rects>
        <_>
          15 15 8 1 -1.</_>
        <_>
          19 15 4 1 2.</_></rects>
      <tilted>0</tilted></_>
    <_>
      <rects>
        <_>
          16 12 6 5 -1.</_>
        <_>
          18 12 2 5 3.</_></rects>
      <tilted>0</tilted></_>
    <_>
      <rects>
        <_>
          17 13 2 8 -1.</_>
        <_>
          17 13 1 4 2.</_>
        <_>
          18 17 1 4 2.</_></rects>
      <tilted>0</tilted></_>
    <_>
      <rects>
        <_>
          18 4 4 22 -1.</_>
        <_>
          20 4 2 22 2.</_></rects>
      <tilted>0</tilted></_>
    <_>
      <rects>
        <_>
          20 12 3 6 -1.</_>
        <_>
          21 12 1 6 3.</_></rects>
      <tilted>0</tilted></_></features></cascade>
</opencv_storage>
